<?xml version="1.0"?>
<opencv_storage>
<opencv_ml_svm>
  <format>3</format>
  <svmType>C_SVC</svmType>
  <kernel>
    <type>LINEAR</type></kernel>
  <C>1.</C>
  <term_criteria><iterations>100</iterations></term_criteria>
  <var_count>324</var_count>
  <class_count>4</class_count>
  <class_labels type_id="opencv-matrix">
    <rows>4</rows>
    <cols>1</cols>
    <dt>i</dt>
    <data>
      1 2 3 4</data></class_labels>
  <sv_total>6</sv_total>
  <support_vectors>
    <_>
      -1.28350565e-02 -6.32536784e-03 -1.89278442e-02 0. -5.28550707e-03
      0. -2.78416695e-03 -9.30419832e-04 -1.28350565e-02 -3.72671783e-02
      -7.76950270e-03 -2.32492331e-02 0. -1.72981452e-02 0.
      -1.19336704e-02 -3.98802338e-03 -3.72671783e-02 1.31004900e-02
      -7.10932687e-02 -1.17417745e-01 0. -8.50171894e-02 0.
      -8.33601877e-03 -2.78575136e-03 1.31004900e-02 -2.62737251e-03
      -4.47652414e-02 8.31486359e-02 0. -1.32768318e-01 0.
      -2.88771577e-02 -9.65024065e-03 -2.62737251e-03 -8.76256637e-03
      -3.92413838e-03 -1.17424764e-02 0. -1.38814459e-02 0.
      -3.92712187e-03 -1.31237519e-03 -8.76256637e-03 -2.24676821e-02
      -5.34719229e-02 -1.45436928e-01 0. -4.65464965e-02 0.
      -4.09776298e-03 -1.36940321e-03 -2.24676821e-02 5.16584702e-02
      -8.73555429e-03 -1.90341398e-02 0. -1.46309003e-01 0.
      1.63581204e-02 5.46659622e-03 5.16584702e-02 1.44419268e-01
      -1.57406181e-02 -4.57688533e-02 0. -1.52771890e-01 0.
      1.67989579e-03 5.61380817e-04 1.44419268e-01 -4.06937376e-02
      -3.46485414e-02 -9.51074064e-02 0. -5.19197807e-02 0.
      -4.84182015e-02 -1.61805190e-02 -4.06937376e-02 -3.04188376e-04
      -4.90223430e-03 -1.46693410e-02 0. -7.89096355e-02 0.
      -5.80473319e-02 -2.00689975e-02 -3.04188376e-04 1.03609473e-01
      -3.10870931e-02 -5.38595319e-02 0. -1.33518159e-01 0.
      1.22330582e-03 -9.19808575e-04 1.03609473e-01 9.22767296e-02
      1.43530387e-02 -7.12764589e-03 0. -1.04372248e-01 0.
      2.35170964e-02 6.93683838e-03 9.22767296e-02 3.10961697e-02
      -2.56859288e-02 -7.68618807e-02 0. -8.30864459e-02 0.
      2.04899209e-03 6.84746483e-04 3.10961697e-02 3.19676399e-02
      -2.41175797e-02 -3.31239291e-02 0. -1.14532046e-01 0.
      1.36558870e-02 4.56357189e-03 3.19676399e-02 4.39991094e-02
      3.14719491e-02 4.87316027e-02 0. -5.72223887e-02 0.
      -4.97458130e-02 -1.66241974e-02 4.39991094e-02 2.49205623e-02
      6.01956546e-02 3.13061737e-02 0. -1.04243428e-01 0.
      -2.75652744e-02 -6.22686837e-03 2.49205623e-02 5.24746031e-02
      4.23230510e-03 3.44444998e-03 0. -1.00705661e-01 0. 9.61804297e-03
      3.21418536e-03 5.24746031e-02 8.54289681e-02 -1.00241660e-03
      -3.31223123e-02 0. -1.23686202e-01 0. 1.09008711e-03
      3.64286854e-04 8.54289681e-02 8.96198675e-04 4.29284535e-02
      7.60225952e-03 0. -9.31971893e-02 0. 1.71435622e-05 5.72907629e-06
      8.96198675e-04 3.21633555e-02 2.10782513e-03 -4.31598276e-02 0.
      -1.23686202e-01 0. 1.75345223e-03 5.85981703e-04 3.21633555e-02
      9.95333865e-02 -1.78038292e-02 -5.33089377e-02 0. -1.28617525e-01
      0. 1.04821920e-02 3.50295240e-03 9.95333865e-02 9.13436711e-02
      4.09421371e-03 -4.51858677e-02 0. -9.99603868e-02 0.
      4.48684916e-02 1.49942525e-02 9.13436711e-02 6.28187060e-02
      -3.57268676e-02 -5.01212031e-02 0. -1.25146136e-01 0.
      1.15765668e-02 1.27525702e-02 6.28187060e-02 6.43728524e-02
      -1.31903328e-02 -3.86902057e-02 0. -4.13009264e-02 0.
      3.52383889e-02 1.92425363e-02 6.43728524e-02 1.81281492e-02
      3.50479372e-02 4.95705158e-02 0. -3.51596102e-02 0.
      -6.69037849e-02 -3.73049192e-02 1.81281492e-02 9.18438844e-03
      5.63853756e-02 1.52107449e-02 0. -5.90947829e-02 0.
      -3.58072408e-02 -1.98279638e-02 9.18438844e-03 6.80778874e-03
      1.12662436e-02 3.37128714e-02 0. 3.01540475e-02 0. -1.88529994e-02
      -6.68812729e-03 6.80778874e-03 -5.79477623e-02 1.67558957e-02
      5.45319021e-02 0. 6.28502108e-03 0. -4.07418758e-02
      -1.36152534e-02 -5.79477623e-02 3.92067172e-02 7.22137541e-02
      3.36015336e-02 0. -8.89375508e-02 0. -2.17821244e-02
      -7.27921817e-03 3.92067172e-02 4.10616584e-02 7.15360045e-03
      -1.61028672e-02 0. -1.23542763e-01 0. -3.30310874e-03
      -9.43764951e-03 4.10616584e-02 -3.36362049e-02 4.82789008e-03
      1.68919247e-02 0. -7.41641298e-02 0. -2.13344265e-02
      -7.12960865e-03 -3.36362049e-02 -2.82297954e-02 -2.48091202e-02
      -7.42383450e-02 0. -1.23542763e-01 0. -5.25996014e-02
      -2.61071566e-02 -2.82297954e-02 1.37601659e-01 9.45316907e-03
      6.51659584e-03 0. -1.45175904e-01 0. -1.39398640e-02
      -1.39326472e-02 1.37601659e-01 3.83645333e-02 -5.50446333e-03
      -2.26394311e-02 0. -1.78848393e-02 0. 2.60304436e-02
      1.05734989e-02 3.83645333e-02 -1.79253481e-02 -4.43638265e-02
      -1.29747629e-01 0. -1.49289832e-01 0. -5.49280941e-02
      -3.50502543e-02 -1.79253481e-02 6.66833203e-03 -8.82437546e-03
      -2.64058970e-02 0. -4.84018065e-02 0. -1.89630818e-02
      -6.33712905e-03 6.66833203e-03</_>
    <_>
      -6.67703710e-03 -1.01917824e-02 -3.04975864e-02 0. -6.80233389e-02
      0. 0. 0. -6.67703710e-03 -7.92457256e-03 -6.05372339e-03
      -1.81149784e-02 0. -6.80233389e-02 0. 0. 0. -7.92457256e-03
      1.81261208e-02 -3.18385623e-02 -7.47192726e-02 0. -1.00075327e-01
      0. -1.13460727e-01 -4.88648564e-02 1.81261208e-02 7.47745410e-02
      1.89007390e-02 7.08505437e-02 0. -1.75484076e-01 0.
      -2.22478434e-02 -4.90876436e-02 7.47745410e-02 -9.22470633e-03 0.
      0. 0. -4.65431847e-02 0. 0. 0. -9.22470633e-03 -1.01603186e-02
      -1.59906074e-02 -4.78498153e-02 0. -5.95447682e-02 0.
      -2.81792060e-02 -9.41701885e-03 -1.01603186e-02 2.33232938e-02
      -5.14992699e-02 -9.09468308e-02 0. -1.75351158e-01 0.
      -4.75389473e-02 -5.01511358e-02 2.33232938e-02 1.44063637e-01
      5.19801229e-02 -4.59687449e-02 0. -1.75351158e-01 0.
      -1.23841979e-01 -1.14595741e-01 1.44063637e-01 -3.45179476e-02
      -2.17593573e-02 -6.51120394e-02 0. -6.20023534e-02 0.
      -8.65769312e-02 -2.89325155e-02 -3.45179476e-02 -3.13612111e-02
      -9.82083846e-03 -2.93875802e-02 0. -7.79306963e-02 0.
      -1.21421188e-01 -4.05768454e-02 -3.13612111e-02 1.65788278e-01
      1.95811931e-02 -3.15619521e-02 0. -1.90031663e-01 0.
      -2.61361785e-02 -3.41592096e-02 1.65788278e-01 7.58861005e-02
      2.01829486e-02 6.06071064e-03 0. -1.60612300e-01 0.
      -6.16767779e-02 -6.95534125e-02 7.58861005e-02 3.87154929e-02
      -9.20958072e-03 -2.75584701e-02 0. -9.23931673e-02 0.
      -6.42349645e-02 -2.14661937e-02 3.87154929e-02 2.16555949e-02
      -1.51198963e-02 -4.52443175e-02 0. -1.49836421e-01 0.
      -3.63770090e-02 -2.39574984e-02 2.16555949e-02 6.28774241e-02
      4.15844247e-02 8.28385949e-02 0. -7.06311688e-02 0.
      -9.57681090e-02 -4.93074544e-02 6.28774241e-02 3.94106209e-02
      5.52745871e-02 8.92974250e-03 0. -1.20138250e-01 0.
      -5.36634251e-02 -4.93493024e-03 3.94106209e-02 7.26211816e-02
      -1.76015049e-02 -5.87656721e-02 0. -1.47496566e-01 0.
      -7.52218813e-02 -2.68384870e-02 7.26211816e-02 1.10169865e-01
      3.24627124e-02 -1.10731844e-03 0. -1.47496566e-01 0.
      -1.10147208e-01 -4.20388989e-02 1.10169865e-01 2.35785935e-02
      3.50005738e-02 -4.47372720e-03 0. -1.47496566e-01 0.
      -3.07195708e-02 -1.04875527e-02 2.35785935e-02 3.53915431e-02
      6.16766280e-03 -3.96794453e-02 0. -1.47496566e-01 0.
      -3.02953850e-02 -2.60764919e-02 3.53915431e-02 1.21418573e-01
      2.70901453e-02 -3.30363587e-02 0. -1.77760825e-01 0.
      -9.45836492e-03 -3.16085946e-03 1.21418573e-01 8.91201869e-02
      1.00841746e-02 -2.80162375e-02 0. -1.39100194e-01 0.
      8.93117394e-03 2.98461341e-03 8.91201869e-02 3.45424451e-02
      -6.48222268e-02 -9.12623629e-02 0. -1.41785830e-01 0.
      4.26777676e-02 3.51039954e-02 3.45424451e-02 7.74656534e-02
      -6.23074882e-02 -9.15481970e-02 0. -9.11420584e-02 0.
      8.16399381e-02 4.47992086e-02 7.74656534e-02 -1.20152626e-02
      3.74207310e-02 6.13522455e-02 0. -3.07614245e-02 0.
      -1.07217304e-01 -7.80373961e-02 -1.20152626e-02 3.73794907e-03
      3.60186100e-02 2.62071751e-02 0. -3.27884629e-02 0.
      -2.19835807e-02 2.58371588e-02 3.73794907e-03 3.83233791e-03
      1.07421950e-02 3.21447141e-02 0. 3.64525989e-02 0. 3.28934914e-03
      1.09924492e-03 3.83233791e-03 -4.63648625e-02 2.07600407e-02
      6.21219575e-02 0. 3.68575775e-03 0. -3.01385694e-03
      -1.00718078e-03 -4.63648625e-02 5.45437597e-02 8.16527233e-02
      6.15237169e-02 0. -6.62543252e-02 0. -2.36345455e-02
      -1.38017982e-02 5.45437597e-02 -9.66164749e-03 -1.40339341e-02
      -7.18924031e-02 0. -1.06729887e-01 0. -3.11140511e-02
      -2.40237843e-02 -9.66164749e-03 -3.80230695e-02 1.58075858e-02
      4.73023318e-02 0. -1.80144552e-02 0. -3.69512588e-02
      -1.23484945e-02 -3.80230695e-02 -1.00372106e-01 -1.12872729e-02
      -3.37758251e-02 0. -1.66285820e-02 0. -6.63551837e-02
      -3.01159862e-02 -1.00372106e-01 3.22279744e-02 -8.65028128e-02
      -5.72881028e-02 0. -4.21282463e-02 0. 1.03897061e-02
      2.59820614e-02 3.22279744e-02 3.87902409e-02 -1.00233831e-01
      -9.01452824e-02 0. 1.78030245e-02 0. 1.01761520e-01 3.84047329e-02
      3.87902409e-02 -7.27273449e-02 -3.30124833e-02 -8.53909999e-02 0.
      -1.25745987e-03 0. -2.54940279e-02 -8.51967745e-03 -7.27273449e-02
      1.17655685e-02 -1.98442042e-02 -4.56074923e-02 0. -3.58071597e-03
      0. 3.78447026e-03 1.26470684e-03 1.17655685e-02</_>
    <_>
      -2.52058450e-02 -4.84117493e-03 -1.44865867e-02 0. -3.16132568e-02
      0. -6.40559644e-02 -2.61470228e-02 -2.52058450e-02 -6.40559644e-02
      -1.26328608e-02 -3.78021933e-02 0. -1.43696629e-02 0.
      -6.40559644e-02 -6.37984276e-02 -6.40559644e-02 5.59247434e-02
      -1.45958290e-02 -4.36761230e-02 0. -4.25106473e-03 0.
      -4.25204337e-02 -1.42096225e-02 5.59247434e-02 -8.16133171e-02
      -1.18684493e-01 2.05898702e-01 0. -1.03899352e-01 0.
      5.65317087e-03 -2.69152392e-02 -8.16133171e-02 -5.22540398e-02
      -3.20125073e-02 -9.57932696e-02 0. -2.28753593e-03 0.
      -5.05955964e-02 -3.24995145e-02 -5.22540398e-02 -6.61006421e-02
      -9.69284028e-02 -1.96795717e-01 0. -8.29335526e-02 0.
      -8.86744708e-02 -3.44428830e-02 -6.61006421e-02 5.74736521e-02
      -1.01785578e-01 -2.65142415e-02 0. -8.08268860e-02 0.
      -8.72634817e-03 -1.90986022e-02 5.74736521e-02 2.48839766e-01
      1.28812548e-02 -2.04252787e-02 0. -2.71268457e-01 0.
      -1.62608877e-01 -6.15006648e-02 2.48839766e-01 -5.49888201e-02
      -6.19119294e-02 -1.64960638e-01 0. -1.68683469e-01 0.
      -1.21933267e-01 -4.70733494e-02 -5.49888201e-02 7.80759305e-02
      6.59567816e-03 1.97366811e-02 0. -3.40905003e-02 0. 2.26754602e-02
      7.57774059e-03 7.80759305e-02 1.11782447e-01 -9.63599235e-02
      -6.90590888e-02 0. -2.55149186e-01 0. -7.65796080e-02
      -4.25111316e-02 1.11782447e-01 1.08501978e-01 -6.08636998e-03
      -2.47968603e-02 0. -1.14443891e-01 0. 1.29838750e-01
      5.23354560e-02 1.08501978e-01 2.70623248e-02 -4.87250462e-03
      -1.45803383e-02 0. -1.76280569e-02 0. 1.66006312e-02
      5.54765388e-03 2.70623248e-02 -1.08528726e-01 -8.63124356e-02
      -4.77237776e-02 0. -1.41720653e-01 0. 2.88300328e-02
      9.63448826e-03 -1.08528726e-01 1.91786943e-03 7.16782808e-02
      1.12171866e-01 0. 4.19066362e-02 0. 1.13563687e-02 3.79511085e-03
      1.91786943e-03 8.09489470e-03 2.41439417e-02 -5.65228127e-02 0.
      -1.10175200e-01 0. 5.72447479e-02 2.93174963e-02 8.09489470e-03
      5.44866035e-03 -4.20587696e-02 -2.97122803e-02 0. -1.26640484e-01
      0. -4.24918942e-02 -1.42000876e-02 5.44866035e-03 1.18881293e-01
      2.25731228e-02 -3.90846319e-02 0. -2.20387548e-01 0.
      -1.49900049e-01 -5.00940159e-02 1.18881293e-01 8.23062938e-03
      2.59452891e-02 -3.65673974e-02 0. -1.18320696e-01 0.
      5.39103197e-03 1.80158578e-03 8.23062938e-03 5.49776815e-02
      2.33106110e-02 -2.01127343e-02 0. -2.20387548e-01 0.
      -5.26291132e-02 -1.75877400e-02 5.49776815e-02 6.03222214e-02
      -1.47595759e-02 -6.42773136e-02 0. -1.85708508e-01 0.
      -6.19313233e-02 -2.06963662e-02 6.03222214e-02 9.15143192e-02
      -2.58462429e-02 -8.90394207e-03 0. -4.52625230e-02 0.
      7.51420557e-02 2.51111537e-02 9.15143192e-02 4.71095694e-03
      -2.10916828e-02 -1.98051091e-02 0. -2.28411540e-01 0.
      -4.00312729e-02 -1.16387233e-02 4.71095694e-03 6.32979870e-02
      -1.83647573e-02 -4.03244533e-02 0. -4.04986227e-03 0.
      -2.24131765e-03 -1.00941975e-02 6.32979870e-02 5.15364185e-02
      2.31226124e-02 -2.12854315e-02 0. 1.39286041e-01 0. 3.26902978e-02
      1.09245526e-02 5.15364185e-02 4.31013778e-02 1.09041175e-02
      -5.00420406e-02 0. 4.40489165e-02 0. 8.43669921e-02 6.15398586e-02
      4.31013778e-02 -7.10990652e-02 -7.24352896e-02 -9.55673829e-02 0.
      1.28947040e-02 0. -3.34283262e-02 -1.11711901e-02 -7.10990652e-02
      -1.52624235e-01 -7.71230161e-02 -2.57997084e-02 0. 2.04862729e-02
      0. -1.36305131e-02 -4.55508893e-03 -1.52624235e-01 7.68225417e-02
      3.16757821e-02 1.16257463e-02 0. -3.43625247e-02 0. 5.86116128e-03
      1.95870339e-03 7.68225417e-02 -2.62540821e-02 -1.18911676e-02
      3.89016680e-02 0. -1.69004127e-01 0. -1.19333677e-02
      4.37098928e-03 -2.62540821e-02 -1.35345519e-01 -4.09470685e-02
      -7.43543729e-02 0. 0. 0. -2.13643368e-02 -7.13960407e-03
      -1.35345519e-01 -1.06311098e-01 -2.65359040e-02 -7.94055462e-02 0.
      -1.71789003e-03 0. -4.57568094e-02 -1.52911618e-02 -1.06311098e-01
      8.23781341e-02 -1.83857363e-02 5.86133227e-02 0. -2.58966833e-01
      0. -7.59945065e-02 -1.87560953e-02 8.23781341e-02 2.48031765e-02
      3.53744277e-03 -6.47007255e-05 0. -9.80690643e-02 0.
      2.11055893e-02 -1.02008581e-02 2.48031765e-02 -1.07933171e-01
      -3.58512625e-02 -1.07280657e-01 0. -1.83804724e-02 0.
      -5.54161817e-02 -1.85191557e-02 -1.07933171e-01 -3.20811458e-02
      -5.19258855e-03 -1.55382063e-02 0. -5.11814691e-02 0.
      -3.27186324e-02 -1.09340046e-02 -3.20811458e-02</_>
    <_>
      1.90023519e-02 3.76436231e-03 1.12643680e-02 0. -1.05615720e-01 0.
      1.23688523e-02 4.13345359e-03 1.90023519e-02 6.60069734e-02
      1.33656617e-02 3.99950184e-02 0. -5.97099401e-02 0. 3.98878120e-02
      1.33298058e-02 6.60069734e-02 -9.57014319e-03 1.02334194e-01
      9.29077566e-02 0. -7.33383819e-02 0. -7.58623928e-02
      -2.98965964e-02 -9.57014319e-03 1.05282940e-01 1.54943973e-01
      5.71607202e-02 0. -4.59564216e-02 0. -1.43072428e-02
      -2.20716577e-02 1.05282940e-01 -1.67703256e-02 6.56660646e-03
      1.96497217e-02 0. -7.81353936e-02 0. -8.96775816e-03
      -2.99686752e-03 -1.67703256e-02 5.27485758e-02 1.40486807e-01
      3.73886198e-01 0. -6.90414943e-03 0. -8.28313306e-02
      -2.76808012e-02 5.27485758e-02 -1.32456467e-01 -3.25821079e-02
      -4.97717820e-02 0. 3.52864191e-02 0. -1.60790786e-01
      -6.79569244e-02 -1.32456467e-01 -9.85436738e-02 2.18473896e-01
      7.30346963e-02 0. 6.47044880e-03 0. -3.29894602e-01
      -1.85617715e-01 -9.85436738e-02 9.33838189e-02 5.43042459e-02
      1.45171478e-01 0. -5.56575544e-02 0. 5.29485792e-02 1.76944416e-02
      9.33838189e-02 -5.79111986e-02 -2.91986968e-02 -8.73732492e-02 0.
      -8.42345059e-02 0. -7.29351267e-02 -2.19976753e-02 -5.79111986e-02
      5.50520308e-02 1.90166816e-01 1.69998512e-01 0. -2.46988609e-02 0.
      -5.15830070e-02 -1.11649791e-02 5.50520308e-02 -6.07487112e-02
      -2.26009227e-02 -8.39136913e-02 0. 1.27709629e-02 0.
      -9.97381583e-02 -3.27057987e-02 -6.07487112e-02 -1.01445019e-02
      3.83010730e-02 1.14611246e-01 0. -8.01025406e-02 0.
      -4.97775562e-02 -1.66348089e-02 -1.01445019e-02 4.30804957e-03
      5.22807166e-02 8.31050128e-02 0. -6.78917244e-02 0.
      -4.97014523e-02 -2.15080418e-02 4.30804957e-03 1.99599806e-02
      1.63320005e-02 4.88714874e-02 0. -6.78917244e-02 0. 7.56835341e-02
      1.81093570e-02 1.99599806e-02 6.89655021e-02 2.23401794e-03
      -2.79749203e-02 0. -5.90828098e-02 0. 9.04574152e-03
      9.74392053e-03 6.89655021e-02 -1.59029160e-02 1.10728508e-02
      -2.58101970e-02 0. -3.31260264e-02 0. -9.03952196e-02
      -3.09144557e-02 -1.59029160e-02 -1.50233451e-02 1.35800123e-01
      1.06926113e-01 0. 2.48878393e-02 0. -1.88996360e-01
      -6.53301179e-02 -1.50233451e-02 4.59342860e-02 1.28360502e-02
      -6.04037903e-02 0. -4.90696318e-02 0. -9.51716974e-02
      -3.22799906e-02 4.59342860e-02 -1.09329022e-01 1.11324392e-01
      1.63898483e-01 0. 2.48878393e-02 0. -2.11484566e-01
      -1.04885064e-01 -1.09329022e-01 2.16679228e-03 1.52992189e-01
      2.03655109e-01 0. 4.05909214e-03 0. -2.77271364e-02
      -9.26590431e-03 2.16679228e-03 -1.66353453e-02 7.01008737e-03
      1.99546684e-02 0. 4.05909214e-03 0. 5.85734844e-03 1.95742724e-03
      -1.66353453e-02 -1.51353478e-01 2.57179104e-02 2.90387068e-02 0.
      1.56119894e-02 0. -8.93370882e-02 -2.98548825e-02 -1.51353478e-01
      -2.73263007e-02 -8.85468423e-02 -4.46103364e-02 0. -9.27619189e-02
      0. 4.14335821e-03 1.38463941e-03 -2.73263007e-02 -1.06213428e-02
      1.09592928e-02 3.27942222e-02 0. 1.54001443e-02 0. 5.16017862e-02
      3.97988446e-02 -1.06213428e-02 -1.75700001e-02 -4.72102500e-02
      -7.92862251e-02 0. -5.23247160e-02 0. 5.24057709e-02
      5.74302450e-02 -1.75700001e-02 -4.98789996e-02 3.74338450e-03
      1.12016285e-02 0. -4.50247154e-02 0. 1.61056332e-02 1.02351811e-02
      -4.98789996e-02 1.18900836e-02 1.64748169e-02 -5.66554582e-03 0.
      -1.58326458e-02 0. 9.78606492e-02 3.27033885e-02 1.18900836e-02
      -7.17369607e-03 3.93876508e-02 -7.45942164e-03 0. 1.02741504e-02
      0. -2.43103113e-02 -2.07845345e-02 -7.17369607e-03 -2.10211635e-01
      8.13297182e-02 1.41650930e-01 0. 1.58311963e-01 0. -1.00070953e-01
      -6.39065281e-02 -2.10211635e-01 -8.26819539e-02 2.41472647e-02
      4.16582339e-02 0. 1.11779660e-01 0. -1.14274174e-02
      -3.81885399e-03 -8.26819539e-02 -1.72724843e-01 4.14311327e-02
      1.23977736e-01 0. 3.15120280e-01 0. 2.32564136e-02 5.70493424e-03
      -1.72724843e-01 -3.01935673e-01 -3.24000083e-02 1.67076127e-03 0.
      2.75238484e-01 0. -5.71520664e-02 1.40040275e-02 -3.01935673e-01
      -1.30842194e-01 -2.14316845e-01 -1.24132879e-01 0. -7.65375942e-02
      0. 3.12705822e-02 1.04500819e-02 -1.30842194e-01 -1.66080877e-01
      6.07343055e-02 2.05193043e-01 0. 4.52469647e-01 0. 8.78576189e-02
      5.86481728e-02 -1.66080877e-01 -2.70525329e-02 -1.12454398e-02
      -4.11166064e-03 0. 2.11316034e-01 0. 4.35672887e-02 1.45594329e-02
      -2.70525329e-02</_>
    <_>
      -1.43705839e-02 3.80125619e-03 1.13747679e-02 0. -3.32140401e-02
      0. -8.22335854e-02 -3.38968299e-02 -1.43705839e-02 -1.36320209e-02
      1.34083268e-03 4.01227642e-03 0. 1.04231639e-02 0. -6.59881756e-02
      -7.94239119e-02 -1.36320209e-02 2.87536904e-02 1.21066250e-01
      2.17864901e-01 0. 1.76504716e-01 0. -4.68693487e-02
      -1.56629700e-02 2.87536904e-02 -4.73498814e-02 2.60483124e-03
      3.46328132e-02 0. 1.85281113e-01 0. 6.14392981e-02 -1.84509046e-02
      -4.73498814e-02 -5.25686480e-02 -1.83073189e-02 -5.47822677e-02 0.
      1.88519228e-02 0. -6.17340207e-02 -4.17311862e-02 -5.25686480e-02
      -4.23544198e-02 2.64885612e-02 1.17512688e-01 0. -9.18104779e-03
      0. -9.34363008e-02 -3.77336703e-02 -4.23544198e-02 -3.67224403e-02
      -5.80618531e-02 4.87321019e-02 0. 2.09790543e-01 0.
      -3.92009169e-02 -3.50009203e-02 -3.67224403e-02 -6.12357780e-02
      6.22548163e-02 5.25113381e-02 0. 4.23525497e-02 0. -1.57628968e-01
      -6.23663850e-02 -6.12357780e-02 3.13192210e-03 2.36673094e-02
      6.18795231e-02 0. -6.75180256e-02 0. -3.87050137e-02
      -2.14950740e-02 3.13192210e-03 6.60334900e-02 1.99809521e-02
      5.97904772e-02 0. 1.24046080e-01 0. 1.36050016e-01 4.70103286e-02
      6.60334900e-02 -9.93327573e-02 -1.31158512e-02 1.78481955e-02 0.
      1.09511726e-02 0. -7.45004639e-02 -4.47344407e-02 -9.93327573e-02
      -7.45310187e-02 -2.21889745e-02 1.44113125e-02 0. 8.72021094e-02
      0. 5.56781515e-02 2.98838057e-02 -7.45310187e-02 -2.79981904e-02
      4.92943563e-02 1.47507086e-01 0. 1.63151473e-01 0. 7.42496084e-03
      2.48128874e-03 -2.79981904e-02 -1.58752352e-01 -1.34313190e-02
      2.13272050e-02 0. 9.51387584e-02 0. -6.85351761e-03
      -2.29036296e-03 -1.58752352e-01 -1.01452492e-01 1.01737082e-02
      3.04436497e-02 0. 1.54107690e-01 0. 6.75008744e-02 2.25576404e-02
      -1.01452492e-01 -4.79604267e-02 -7.95265809e-02 -9.00725350e-02 0.
      9.42222401e-02 0. 7.57771507e-02 2.87533160e-02 -4.79604267e-02
      -9.10026729e-02 -3.57471034e-02 -1.44655341e-02 0. 8.12858716e-02
      0. -5.61647303e-02 -1.87693201e-02 -9.10026729e-02 -5.20840026e-02
      3.78621258e-02 1.58760920e-02 0. 2.76866071e-02 0. -1.29162908e-01
      -4.31640223e-02 -5.20840026e-02 -1.52646145e-02 -5.48408292e-02
      -3.13403830e-02 0. 7.98836499e-02 0. 2.03227671e-03 6.79146382e-04
      -1.52646145e-02 -4.24479768e-02 1.67686250e-02 5.33624701e-02 0.
      2.76866071e-02 0. -2.42662914e-02 -8.10938608e-03 -4.24479768e-02
      -1.32927552e-01 4.52333204e-02 3.04039381e-02 0. 7.24236220e-02 0.
      -6.61631525e-02 -2.21105441e-02 -1.32927552e-01 -9.35519114e-02
      -2.53572855e-02 8.76235589e-02 0. 1.66632161e-01 0.
      -1.43677164e-02 -4.80142375e-03 -9.35519114e-02 -1.42041519e-01
      5.87678738e-02 8.31418484e-02 0. 3.04039381e-02 0. -4.24397960e-02
      -3.25890221e-02 -1.42041519e-01 -7.43697360e-02 7.56625412e-03
      3.34675349e-02 0. 6.59768432e-02 0. -8.23371857e-02
      -5.76108098e-02 -7.43697360e-02 3.78190610e-03 -4.09913100e-02
      -9.32862386e-02 0. 1.87047750e-01 0. 1.37958780e-01 6.57558143e-02
      3.78190610e-03 1.91810746e-02 -9.51870680e-02 -6.01317175e-02 0.
      1.88131675e-01 0. 1.25872537e-01 7.40384683e-02 1.91810746e-02
      -7.55838454e-02 -8.42523277e-02 -1.47545412e-01 0. -4.31503654e-02
      0. 7.93505739e-03 3.54504003e-03 -7.55838454e-02 -2.03959458e-02
      -1.00821607e-01 -1.34939045e-01 0. 7.86249153e-03 0.
      4.65096124e-02 1.55427353e-02 -2.03959458e-02 -1.02246450e-02
      -1.08823530e-01 -4.90840413e-02 0. 1.33388206e-01 0.
      3.41646783e-02 1.14172585e-02 -1.02246450e-02 -1.00469306e-01
      -2.69634407e-02 6.19429797e-02 0. 8.62966999e-02 0. 3.93593721e-02
      5.40753976e-02 -1.00469306e-01 -5.84074110e-02 -4.56894115e-02
      -1.00783408e-01 0. 1.00326113e-01 0. 1.17803365e-02 3.93679086e-03
      -5.84074110e-02 -5.62621243e-02 2.21336167e-02 6.62322193e-02 0.
      2.45388940e-01 0. 9.55344886e-02 5.84185086e-02 -5.62621243e-02
      -2.20321953e-01 -7.28472397e-02 2.53251176e-02 0. 5.46507686e-02
      0. 1.29263680e-02 4.94934618e-02 -2.20321953e-01 -6.25689402e-02
      1.00719668e-02 3.01391352e-02 0. -4.36404422e-02 0.
      -1.88400652e-02 -3.40274423e-02 -6.25689402e-02 -6.79853410e-02
      5.93631603e-02 1.68300793e-01 0. 2.73521930e-01 0. 1.02523774e-01
      8.61151889e-02 -6.79853410e-02 -5.75236008e-02 1.90912448e-02
      5.71282841e-02 0. 7.03654885e-02 0. 1.53140929e-02 5.11768600e-03
      -5.75236008e-02</_>
    <_>
      -3.69761847e-02 4.27314918e-03 1.27868457e-02 0. 1.69307739e-02 0.
      -1.09460481e-01 -4.45754714e-02 -3.69761847e-02 -1.00438602e-01
      -1.02046104e-02 -2.50445865e-02 0. 5.53973801e-02 0.
      -1.07656442e-01 -1.07476473e-01 -1.00438602e-01 9.14802551e-02
      8.54165852e-02 1.77158907e-01 0. 2.53268480e-01 0. 4.71160114e-02
      2.40443759e-02 9.14802551e-02 -1.37760073e-01 -9.89674553e-02
      3.65935341e-02 0. 2.17604622e-01 0. 5.81566356e-02 2.42661498e-03
      -1.37760073e-01 -8.01346302e-02 -2.15451010e-02 -6.44709319e-02 0.
      5.52033745e-02 0. -7.84644410e-02 -5.25182411e-02 -8.01346302e-02
      -7.77919069e-02 -5.15449755e-02 -8.66298750e-02 0. 7.44845951e-03
      0. -5.89149818e-02 -2.78000422e-02 -7.77919069e-02 3.64165790e-02
      -8.95030517e-03 9.27755460e-02 0. 1.68064788e-01 0. 7.39770234e-02
      2.34015882e-02 3.64165790e-02 1.75086726e-02 -7.83463120e-02
      8.23191833e-03 0. 1.87221803e-02 0. 7.48540759e-02 9.03535336e-02
      1.75086726e-02 -5.45786917e-02 -1.42316548e-02 -2.78657097e-02 0.
      -6.27433881e-02 0. -5.77202626e-02 -2.99576335e-02 -5.45786917e-02
      1.00650497e-01 2.84412187e-02 8.51066262e-02 0. 1.33984119e-01 0.
      2.07660675e-01 7.23282769e-02 1.00650497e-01 -1.07437864e-01
      -1.71131283e-01 -1.03526741e-01 0. -1.99619634e-03 0.
      2.61513442e-02 -5.24788338e-04 -1.07437864e-01 -8.64349306e-03
      -3.22323442e-02 -4.32466017e-03 0. 9.63776633e-02 0.
      1.89151600e-01 1.16380788e-01 -8.64349306e-03 8.74637440e-03
      2.89796591e-02 8.67178515e-02 0. 2.36722231e-01 0. 7.66161978e-02
      2.56038029e-02 8.74637440e-03 -1.14857450e-01 -5.40533066e-02
      -9.08253808e-03 0. 1.26818463e-01 0. 5.85469678e-02 2.85107996e-02
      -1.14857450e-01 -1.21868901e-01 -3.15540992e-02 -9.44215357e-02 0.
      1.93434343e-01 0. 7.90097266e-02 3.95201631e-02 -1.21868901e-01
      -1.17290914e-01 -1.29000664e-01 -1.21042594e-01 0. 9.69871208e-02
      0. 1.31518215e-01 4.45901528e-02 -1.17290914e-01 -6.05998039e-02
      -3.21125574e-02 -7.36237830e-03 0. 7.49376044e-02 0.
      3.52745615e-02 1.30772358e-02 -6.05998039e-02 -2.66319253e-02
      -6.44674376e-02 -6.82280660e-02 0. 6.96536992e-03 0.
      2.85494272e-02 1.35048879e-02 -2.66319253e-02 -4.53701243e-02
      -5.45825996e-02 -4.48574163e-02 0. 8.09699520e-02 0.
      7.26563334e-02 2.45348606e-02 -4.53701243e-02 1.96582507e-02
      -3.35568488e-02 -3.22812684e-02 0. 6.96536992e-03 0.
      6.40314221e-02 3.97091992e-02 1.96582507e-02 -1.07690714e-01
      -1.05410859e-01 -9.17149261e-02 0. 5.42502888e-02 0.
      -8.04962870e-03 -2.69001024e-03 -1.07690714e-01 -6.44057095e-02
      -3.28954197e-02 5.02189361e-02 0. 1.78259537e-01 0. 4.80836108e-02
      1.60687268e-02 -6.44057095e-02 -5.24003133e-02 4.80174720e-02
      8.11198354e-02 0. 3.75046046e-03 0. -6.19838685e-02
      -4.36528660e-02 -5.24003133e-02 -5.86011559e-02 9.63737890e-02
      1.40157804e-01 0. 1.93736032e-01 0. -1.18174680e-01
      -7.69979805e-02 -5.86011559e-02 2.89241015e-03 -6.39355034e-02
      -1.66635603e-01 0. 1.43434688e-01 0. 1.34330556e-01 8.01923275e-02
      2.89241015e-03 3.36660109e-02 -7.32367262e-02 -8.02306980e-02 0.
      1.45412564e-01 0. 1.45771787e-01 6.26303777e-02 3.36660109e-02
      -6.79128543e-02 -7.40449205e-02 -1.33703008e-01 0. -5.28240809e-03
      0. 5.54378936e-03 1.85264403e-03 -6.79128543e-02 -7.46182054e-02
      -8.16261396e-02 -9.29707661e-02 0. 2.86976006e-02 0.
      8.46387167e-03 2.82848603e-03 -7.46182054e-02 -1.28552672e-02
      -9.76647437e-02 -6.17936850e-02 0. 1.14135861e-01 0.
      4.27466705e-02 2.10616402e-02 -1.28552672e-02 1.86386313e-02
      -2.77679991e-02 4.73533608e-02 0. -5.41040814e-03 0.
      4.73662131e-02 4.45062816e-02 1.86386313e-02 -5.77009581e-02
      -3.80626693e-02 -7.89683685e-02 0. 5.07066138e-02 0.
      5.61294425e-03 1.87575363e-03 -5.77009581e-02 2.19069086e-02
      -4.03526425e-03 -1.20750526e-02 0. 3.71010266e-02 0.
      4.63366217e-04 9.27022751e-03 2.19069086e-02 4.89403680e-03
      4.60709631e-02 9.40481946e-02 0. -1.00950301e-01 0.
      -5.23281433e-02 -3.42308283e-02 4.89403680e-03 1.12745799e-02
      1.82755023e-01 2.05279574e-01 0. 1.02200639e-02 0. -1.06829427e-01
      -7.02607855e-02 1.12745799e-02 1.74396168e-02 1.12124551e-02
      1.81764122e-02 0. -1.54144596e-02 0. -5.02361394e-02
      -1.67880692e-02 1.74396168e-02 -6.07240237e-02 1.97286326e-02
      4.32250313e-02 0. -7.73965642e-02 0. -6.41093254e-02
      -2.14242376e-02 -6.07240237e-02</_></support_vectors>
  <uncompressed_sv_total>11</uncompressed_sv_total>
  <uncompressed_support_vectors>
    <_>
      0. 0. 0. 0. 0. 0. 0. 0. 0. 0. 0. 0. 0. 0. 0. 0. 0. 0. 0. 0. 0. 0.
      0. 0. 0. 0. 0. 2.66513884e-01 2.91722536e-01 8.72941792e-01 0. 0.
      0. 0. 0. 2.66513884e-01 0. 0. 0. 0. 0. 0. 0. 0. 0. 3.99256498e-02
      1.58997811e-02 4.75780256e-02 0. 0. 0. 0. 0. 3.99256498e-02
      9.96965468e-02 1.24830112e-01 3.73537838e-01 0. 0. 0. 0. 0.
      9.96965468e-02 4.51330036e-01 4.51330036e-01 4.51330036e-01 0. 0.
      0. 0. 0. 4.51330036e-01 8.53390098e-02 2.12125015e-02
      6.34756610e-02 0. 0. 0. 2.26920447e-03 7.58328300e-04
      8.53390098e-02 1.55586600e-01 1.66799780e-02 4.99126688e-02 0.
      4.81271558e-03 0. 6.91864267e-02 2.31208894e-02 1.55586600e-01
      3.34822923e-01 2.56771386e-01 3.34822923e-01 0. 0. 0.
      9.83321946e-03 3.28608905e-03 3.34822923e-01 3.34822923e-01
      1.92249864e-01 3.34822923e-01 0. 1.30197629e-01 0. 3.34822923e-01
      1.27987370e-01 3.34822923e-01 1.13764470e-02 1.22099360e-02
      3.65366414e-02 0. 0. 0. 0. 0. 1.13764470e-02 1.07382424e-01
      1.11604556e-01 3.33962113e-01 0. 0. 0. 0. 0. 1.07382424e-01
      1.24730259e-01 1.91175655e-01 3.87975931e-01 0. 1.56426027e-01 0.
      2.12809257e-02 7.11173005e-03 1.24730259e-01 3.87975931e-01
      3.87975931e-01 3.87975931e-01 0. 4.43413518e-02 0. 9.67314932e-03
      3.23260459e-03 3.87975931e-01 1.17107473e-01 1.36994138e-01
      3.26209605e-01 0. 0. 0. 0. 0. 1.17107473e-01 2.31286466e-01
      2.54317701e-01 3.26209605e-01 0. 0. 0. 0. 0. 2.31286466e-01
      2.35675007e-01 2.85690814e-01 3.26209605e-01 0. 0. 0. 0. 0.
      2.35675007e-01 2.28387505e-01 2.37072304e-01 3.26209605e-01 0. 0.
      0. 0. 0. 2.28387505e-01 3.09495062e-01 2.72176802e-01
      3.09495062e-01 0. 0. 0. 2.87480885e-03 9.60710749e-04
      3.09495062e-01 3.09495062e-01 1.89490780e-01 3.09495062e-01 0.
      8.08955580e-02 0. 1.34153023e-01 4.48315851e-02 3.09495062e-01
      2.17282385e-01 1.51623935e-01 3.09495062e-01 0. 0. 0. 0. 0.
      2.17282385e-01 1.41191959e-01 5.71895503e-02 1.71132967e-01 0.
      3.07323667e-03 0. 0. 0. 1.41191959e-01 1.93889439e-01
      1.83329538e-01 3.24547678e-01 0. 3.24547678e-01 0. 8.27762038e-02
      2.76624206e-02 1.93889439e-01 3.24547678e-01 3.24547678e-01
      3.24547678e-01 0. 9.84844789e-02 0. 3.76255475e-02 1.25738289e-02
      3.24547678e-01 1.39082849e-01 4.84482497e-02 1.44975513e-01 0.
      1.61323786e-01 0. 6.43814877e-02 2.15152148e-02 1.39082849e-01
      1.51334792e-01 9.79575366e-02 2.93126285e-01 0. 4.60681617e-02 0.
      2.92643122e-02 9.77964420e-03 1.51334792e-01 4.06071991e-01
      4.06071991e-01 4.06071991e-01 0. 0. 0. 0. 0. 4.06071991e-01
      1.79541588e-01 2.09691241e-01 4.06071991e-01 0. 0. 0. 0. 0.
      1.79541588e-01 7.85296708e-02 7.12213144e-02 2.13121369e-01 0. 0.
      0. 0. 0. 7.85296708e-02 5.44248521e-03 3.80481617e-03
      1.13854613e-02 0. 0. 0. 0. 0. 5.44248521e-03 5.24173260e-01
      3.91337246e-01 5.38382471e-01 0. 0. 0. 0. 0. 5.24173260e-01
      2.98952572e-02 5.67272957e-03 1.69749707e-02 0. 0. 0. 0. 0.
      2.98952572e-02 0. 0. 0. 0. 0. 0. 0. 0. 0. 0. 0. 0. 0. 0. 0. 0. 0.
      0.</_>
    <_>
      0. 0. 0. 0. 0. 0. 0. 0. 0. 0. 0. 0. 0. 0. 0. 0. 0. 0.
      4.42689091e-01 4.98438068e-02 1.49151117e-01 0. 2.78253198e-01 0.
      1.14731705e-02 3.83413187e-03 4.42689091e-01 4.42689091e-01
      1.15024177e-02 3.44194882e-02 0. 3.11354157e-02 0. 3.10381830e-01
      1.03724152e-01 4.42689091e-01 0. 0. 0. 0. 0. 0. 0. 0. 0. 0. 0. 0.
      0. 0. 0. 0. 0. 0. 4.65871096e-01 0. 0. 0. 0. 0. 3.17957282e-01
      1.06255732e-01 4.65871096e-01 4.65871096e-01 0. 0. 0. 0. 0.
      1.15445644e-01 3.85799035e-02 4.65871096e-01 0. 0. 0. 0. 0. 0. 0.
      0. 0. 0. 0. 0. 0. 0. 0. 0. 0. 0. 5.18961608e-01 0. 0. 0. 0. 0.
      5.04879355e-01 1.68721810e-01 5.18961608e-01 2.64244348e-01 0. 0.
      0. 0. 0. 1.72695458e-01 5.77117875e-02 2.64244348e-01
      2.94787616e-01 2.25417744e-02 6.74533248e-02 0. 2.11744279e-01 0.
      8.59226137e-02 2.87139025e-02 2.94787616e-01 2.94787616e-01
      5.20194741e-03 1.55661516e-02 0. 2.35002041e-02 0. 2.70283699e-01
      9.03241783e-02 2.94787616e-01 2.94787616e-01 1.02462610e-02
      3.06606032e-02 0. 1.67229205e-01 0. 1.49109215e-01 4.98298071e-02
      2.94787616e-01 2.94787616e-01 2.36452161e-03 7.07552303e-03 0.
      1.84472166e-02 0. 2.94787616e-01 1.43872142e-01 2.94787616e-01
      3.30158114e-01 0. 0. 0. 0. 0. 1.43547758e-01 4.79711741e-02
      3.30158114e-01 3.30158114e-01 0. 0. 0. 0. 0. 6.90780431e-02
      2.30846778e-02 3.30158114e-01 3.30158114e-01 0. 0. 0. 0. 0.
      1.83039472e-01 6.11686818e-02 3.30158114e-01 3.30158114e-01 0. 0.
      0. 0. 0. 2.30783567e-01 7.71239698e-02 3.30158114e-01
      2.89971113e-01 0. 0. 0. 8.39324575e-03 0. 2.21748590e-01
      7.41044879e-02 2.89971113e-01 1.44248813e-01 0. 0. 0.
      7.51844421e-02 0. 2.23193914e-01 7.45874867e-02 1.44248813e-01
      2.89971113e-01 8.18993337e-03 2.45074052e-02 0. 3.50813717e-02 0.
      2.89971113e-01 1.65202901e-01 2.89971113e-01 2.89971113e-01
      5.48712052e-02 1.64195582e-01 0. 2.89971113e-01 0. 2.89971113e-01
      1.54305845e-01 2.89971113e-01 3.47482264e-01 0. 0. 0.
      6.11680932e-02 0. 2.58252770e-01 8.63037705e-02 3.47482264e-01
      4.42831486e-01 0. 0. 0. 4.07787319e-03 0. 4.42831486e-01
      2.96460062e-01 4.42831486e-01 0. 0. 0. 0. 0. 0. 0. 0. 0. 0. 0. 0.
      0. 0. 0. 0. 0. 0. 4.29249763e-01 0. 0. 0. 0. 0. 1.92132846e-01
      6.42075911e-02 4.29249763e-01 4.29249763e-01 0. 0. 0. 0. 0.
      4.29249763e-01 1.80666372e-01 4.29249763e-01 0. 0. 0. 0. 0. 0. 0.
      0. 0. 1.81257501e-02 0. 0. 0. 0. 0. 9.50040203e-03 3.17487563e-03
      1.81257501e-02 3.35582465e-01 1.91038195e-02 5.71659133e-02 0.
      3.16279568e-02 0. 3.35582465e-01 1.85912222e-01 3.35582465e-01
      3.35582465e-01 1.27992436e-01 3.35582465e-01 0. 3.35582465e-01 0.
      3.35582465e-01 1.26557618e-01 3.35582465e-01 6.20510094e-02
      1.27358793e-03 3.81106068e-03 0. 0. 0. 2.06446536e-02
      6.89909840e-03 6.20510094e-02 8.67080092e-02 8.53282958e-03
      2.55334806e-02 0. 0. 0. 1.25422413e-02 4.19140747e-03
      8.67080092e-02</_>
    <_>
      9.33417305e-03 3.90561926e-03 1.16870571e-02 0. 0. 0. 0. 0.
      9.33417305e-03 9.06215906e-02 1.15360320e-02 3.45200785e-02 0.
      8.75714794e-03 0. 1.41891278e-02 4.74175764e-03 9.06215906e-02
      4.63713966e-02 1.46777213e-01 3.75693351e-01 0. 2.70500630e-01 0.
      0. 0. 4.63713966e-02 3.75693351e-01 3.50385547e-01 3.75693351e-01
      0. 3.75693351e-01 0. 2.12836906e-01 7.11263642e-02 3.75693351e-01
      2.27321163e-02 1.38041470e-02 4.13071141e-02 0. 9.84186959e-03 0.
      5.64518757e-03 1.88652263e-03 2.27321163e-02 4.68375683e-02
      1.56335264e-01 3.87708724e-01 0. 3.38927656e-02 0. 8.14821105e-03
      2.72299536e-03 4.68375683e-02 1.19946197e-01 1.32635608e-01
      3.87708724e-01 0. 3.87708724e-01 0. 8.46778080e-02 2.82978360e-02
      1.19946197e-01 5.02411798e-02 3.87708724e-01 3.87708724e-01 0.
      3.87708724e-01 0. 3.93232666e-02 1.31411748e-02 5.02411798e-02
      1.31592721e-01 1.33855850e-01 3.44192296e-01 0. 1.09212048e-01 0.
      1.19031221e-01 3.97781581e-02 1.31592721e-01 9.09591615e-02
      3.99552695e-02 1.19561151e-01 0. 2.30566829e-01 0. 1.92268550e-01
      6.42527714e-02 9.09591615e-02 9.33479071e-02 3.44192296e-01
      3.44192296e-01 0. 3.44192296e-01 0. 1.27845287e-01 4.27237153e-02
      9.33479071e-02 4.50668857e-02 1.35927841e-01 3.44192296e-01 0.
      3.44192296e-01 0. 1.36428803e-01 4.55921367e-02 4.50668857e-02
      5.97488834e-03 8.00757334e-02 2.39616320e-01 0. 2.62194246e-01 0.
      0. 0. 5.97488834e-03 6.51026964e-02 1.89382017e-01 3.09104264e-01
      0. 3.09104264e-01 0. 3.57917659e-02 1.19609786e-02 6.51026964e-02
      5.80101162e-02 9.85207409e-02 2.94810802e-01 0. 3.09104264e-01 0.
      7.08018541e-02 2.36607958e-02 5.80101162e-02 3.09104264e-01
      1.97882712e-01 3.09104264e-01 0. 3.09104264e-01 0. 3.79508212e-02
      1.26825292e-02 3.09104264e-01 3.35977711e-02 1.14469819e-01
      3.06940675e-01 0. 3.06940675e-01 0. 3.36477086e-02 1.12444740e-02
      3.35977711e-02 2.70072203e-02 2.42152020e-01 3.06940675e-01 0.
      3.06940675e-01 0. 4.13447581e-02 1.38166975e-02 2.70072203e-02
      2.12617740e-01 9.94163975e-02 2.97491342e-01 0. 3.06940675e-01 0.
      2.31516566e-02 7.73688778e-03 2.12617740e-01 1.00352608e-01
      1.49713889e-01 3.06940675e-01 0. 3.06940675e-01 0. 1.55498058e-01
      5.19647673e-02 1.00352608e-01 3.06795277e-02 3.48100990e-01
      3.48100990e-01 0. 3.48100990e-01 0. 4.57832329e-02 1.52999768e-02
      3.06795277e-02 4.86480072e-03 1.30149007e-01 3.48100990e-01 0.
      3.48100990e-01 0. 1.20914653e-02 4.04076558e-03 4.86480072e-03
      4.27625030e-02 2.20374495e-01 3.48100990e-01 0. 3.48100990e-01 0.
      1.69354036e-01 5.65951690e-02 4.27625030e-02 0. 5.64929955e-02
      1.69048533e-01 0. 1.04146704e-01 0. 1.40393088e-02 4.69169021e-03
      0. 2.09100127e-01 6.70707524e-02 2.00700641e-01 0. 3.25920492e-01
      0. 2.66796768e-01 8.91590193e-02 2.09100127e-01 3.25920492e-01
      9.22133848e-02 2.75937200e-01 0. 3.25920492e-01 0. 1.47905961e-01
      4.94276956e-02 3.25920492e-01 1.07834205e-01 1.91469619e-03
      5.72947832e-03 0. 2.58639995e-02 0. 1.00528121e-01 3.35948169e-02
      1.07834205e-01 3.25920492e-01 3.66319623e-03 1.09616695e-02 0.
      5.96861495e-03 0. 5.78012839e-02 1.93162225e-02 3.25920492e-01
      3.07174206e-01 6.81938827e-02 2.04061940e-01 0. 1.94281310e-01 0.
      7.79309273e-02 2.60432065e-02 3.07174206e-01 1.79221779e-01
      8.64377022e-02 2.58654445e-01 0. 3.07174206e-01 0. 3.07174206e-01
      1.91446960e-01 1.79221779e-01 2.02991262e-01 1.67289712e-02
      5.00594638e-02 0. 3.17302532e-02 0. 4.75277156e-02 1.58829670e-02
      2.02991262e-01 1.06684938e-01 5.26731908e-02 1.57618269e-01 0.
      3.07174206e-01 0. 3.07174206e-01 1.60136923e-01 1.06684938e-01
      3.23121622e-02 8.83711204e-02 2.64440060e-01 0. 3.54894996e-01 0.
      3.54894996e-01 2.45771825e-01 3.23121622e-02 0. 1.62449144e-02
      4.86109778e-02 0. 1.59096137e-01 0. 1.17661819e-01 3.93205173e-02
      0. 9.44082141e-02 1.25369564e-01 3.54894996e-01 0. 3.54894996e-01
      0. 3.54894996e-01 2.31113642e-01 9.44082141e-02 1.36851650e-02
      4.68507968e-02 1.40195444e-01 0. 2.32325509e-01 0. 1.34084657e-01
      4.48087454e-02 1.36851650e-02</_>
    <_>
      4.99949232e-02 2.14086697e-02 6.40626773e-02 0. 1.19115515e-02 0.
      8.94306414e-03 2.98861531e-03 4.99949232e-02 1.07795447e-01
      2.36945637e-02 7.09029436e-02 0. 5.03794998e-02 0. 3.87532748e-02
      1.29506644e-02 1.07795447e-01 1.82150736e-01 2.40933940e-01
      3.42756361e-01 0. 3.42756361e-01 0. 3.87532748e-02 1.29506644e-02
      1.82150736e-01 3.42756361e-01 3.02372217e-01 3.42756361e-01 0.
      3.42756361e-01 0. 1.67930886e-01 5.61195537e-02 3.42756361e-01
      2.53970791e-02 6.25205878e-03 1.87084880e-02 0. 5.49200736e-02 0.
      1.36162713e-02 4.55031870e-03 2.53970791e-02 1.13867246e-01
      1.49314061e-01 4.42739934e-01 0. 2.12616429e-01 0. 1.14944661e-02
      3.84125835e-03 1.13867246e-01 7.81055838e-02 6.88652471e-02
      2.06070855e-01 0. 3.86724263e-01 0. 5.90038449e-02 1.97180472e-02
      7.81055838e-02 7.91534558e-02 2.88037032e-01 4.42739934e-01 0.
      4.42739934e-01 0. 2.52878238e-02 8.45076889e-03 7.91534558e-02
      1.92419186e-01 8.42270479e-02 2.52038717e-01 0. 1.83176979e-01 0.
      1.19305894e-01 3.98699604e-02 1.92419186e-01 1.20004646e-01
      1.25938607e-02 3.76855619e-02 0. 2.29303733e-01 0. 1.84503943e-01
      6.16580062e-02 1.20004646e-01 1.35939971e-01 1.82939887e-01
      3.84625673e-01 0. 3.84625673e-01 0. 1.91239238e-01 6.39088899e-02
      1.35939971e-01 8.39986205e-02 6.08389489e-02 1.82053000e-01 0.
      3.84625673e-01 0. 2.60532260e-01 8.70653987e-02 8.39986205e-02
      4.64571863e-02 8.43457952e-02 2.52394140e-01 0. 3.04760873e-01 0.
      4.54889052e-02 1.52015947e-02 4.64571863e-02 1.18096545e-01
      1.02532998e-01 3.04760873e-01 0. 3.04760873e-01 0. 8.00355747e-02
      2.67464854e-02 1.18096545e-01 8.01466927e-02 8.75721965e-03
      2.62048822e-02 0. 3.04760873e-01 0. 3.03289622e-01 1.01354219e-01
      8.01466927e-02 3.04760873e-01 1.20068081e-02 3.59289236e-02 0.
      3.04760873e-01 0. 3.04760873e-01 1.16863668e-01 3.04760873e-01
      7.38224983e-02 3.52612697e-02 1.05514988e-01 0. 2.28381455e-01 0.
      2.02321485e-02 6.76122913e-03 7.38224983e-02 5.01568504e-02
      9.82176811e-02 2.93903828e-01 0. 3.45616251e-01 0. 2.81847874e-03
      9.41888487e-04 5.01568504e-02 3.45616251e-01 3.05167250e-02
      9.13175195e-02 0. 1.88539460e-01 0. 1.02379426e-01 3.42134684e-02
      3.45616251e-01 2.69080251e-01 1.42548874e-01 3.45616251e-01 0.
      3.45616251e-01 0. 2.58051828e-02 8.62366054e-03 2.69080251e-01
      4.33836579e-02 1.47411808e-01 3.39944243e-01 0. 3.39944243e-01 0.
      3.88469957e-02 1.29820146e-02 4.33836579e-02 1.40429987e-02
      1.12088129e-01 3.35409939e-01 0. 3.39944243e-01 0. 4.72721756e-02
      1.57975648e-02 1.40429987e-02 1.14032038e-01 1.90978691e-01
      3.39944243e-01 0. 3.39944243e-01 0. 2.26123817e-03 7.55668036e-04
      1.14032038e-01 4.21690345e-02 1.12140127e-01 3.35565716e-01 0.
      2.69178629e-01 0. 0. 0. 4.21690345e-02 2.15485916e-01 0. 0. 0.
      3.35598886e-01 0. 3.68929088e-01 1.90853089e-01 2.15485916e-01
      3.68929088e-01 2.44999025e-02 7.33130574e-02 0. 1.33152112e-01 0.
      3.68929088e-01 2.63288200e-01 3.68929088e-01 4.39690873e-02 0. 0.
      0. 0. 0. 5.20191751e-02 1.73839405e-02 4.39690873e-02
      1.99951544e-01 1.11363204e-02 3.33241150e-02 0. 0. 0.
      1.61133796e-01 5.38482219e-02 1.99951544e-01 3.39646816e-01
      4.18747962e-02 1.25305310e-01 0. 2.47660726e-01 0. 1.77473128e-01
      5.93085475e-02 3.39646816e-01 1.64170027e-01 1.31336242e-01
      3.39646816e-01 0. 3.39646816e-01 0. 6.70756474e-02 2.24155597e-02
      1.64170027e-01 9.52319354e-02 2.79790256e-02 8.37239176e-02 0.
      3.39646816e-01 0. 7.12891221e-02 2.38236319e-02 9.52319354e-02
      6.66838214e-02 8.56240317e-02 2.56219774e-01 0. 3.39646816e-01 0.
      3.04889325e-02 1.01888925e-02 6.66838214e-02 1.54821664e-01
      3.75337303e-01 4.30729002e-01 0. 4.30729002e-01 0. 2.18062140e-02
      7.28727272e-03 1.54821664e-01 6.38205037e-02 8.89396220e-02
      2.66141236e-01 0. 1.28294200e-01 0. 0. 0. 6.38205037e-02
      3.35454196e-02 1.20276354e-01 3.59912753e-01 0. 4.30729002e-01 0.
      9.91191622e-03 3.31239682e-03 3.35454196e-02 0. 1.91975408e-03
      5.74463699e-03 0. 4.65647597e-03 0. 0. 0. 0.</_>
    <_>
      5.06816320e-02 4.61659878e-02 1.38145715e-01 0. 8.63132179e-02 0.
      3.04299407e-02 1.01691522e-02 5.06816320e-02 8.41183662e-02
      4.23422754e-02 1.26703724e-01 0. 1.80554703e-01 0. 6.69458658e-02
      2.23721322e-02 8.41183662e-02 6.51620999e-02 2.62198776e-01
      4.22207028e-01 0. 4.22207028e-01 0. 6.69458658e-02 2.23721322e-02
      6.51620999e-02 1.08152196e-01 2.20462441e-01 4.22207028e-01 0.
      4.22207028e-01 0. 1.47280917e-01 4.92186956e-02 1.08152196e-01
      1.33544086e-02 1.92284118e-02 5.75385205e-02 0. 5.11192419e-02 0.
      1.29628787e-02 4.33196640e-03 1.33544086e-02 9.49817076e-02
      1.51479378e-01 3.98223311e-01 0. 7.20644835e-03 0. 1.90907829e-02
      6.37980457e-03 9.49817076e-02 1.71699543e-02 1.88790619e-01
      3.98223311e-01 0. 3.98223311e-01 0. 2.85183340e-02 9.53032635e-03
      1.71699543e-02 1.38526186e-01 3.98223311e-01 3.98223311e-01 0.
      2.70212322e-01 0. 7.52801895e-02 2.51573678e-02 1.38526186e-01
      1.41829535e-01 1.06689908e-01 3.13090682e-01 0. 4.65397444e-03 0.
      2.36855224e-01 7.91528523e-02 1.41829535e-01 5.57977259e-02
      1.87783707e-02 5.61918356e-02 0. 4.00267430e-02 0. 3.13090682e-01
      1.24095403e-01 5.57977259e-02 1.83133885e-01 2.29138881e-01
      3.13090682e-01 0. 2.26181224e-01 0. 3.13090682e-01 1.43195674e-01
      1.83133885e-01 5.09614684e-02 3.27280983e-02 9.79347527e-02 0.
      3.13090682e-01 0. 3.13090682e-01 2.46732414e-01 5.09614684e-02
      4.40843031e-03 9.80886370e-02 2.93517679e-01 0. 3.64899129e-01 0.
      8.63996428e-03 2.88732420e-03 4.40843031e-03 8.75069946e-03
      1.26064613e-01 3.64899129e-01 0. 3.64899129e-01 0. 1.90079194e-02
      6.35211309e-03 8.75069946e-03 2.81834751e-02 2.13532448e-02
      6.38968721e-02 0. 3.64899129e-01 0. 1.45707980e-01 4.86931391e-02
      2.81834751e-02 1.21297099e-01 1.21749520e-01 3.64319921e-01 0.
      3.64899129e-01 0. 1.01917505e-01 3.40590701e-02 1.21297099e-01
      1.86168635e-03 1.67102441e-01 3.21018010e-01 0. 3.14487696e-01 0.
      3.88831855e-03 1.29940780e-03 1.86168635e-03 2.51622479e-02
      2.55108386e-01 3.21018010e-01 0. 3.21018010e-01 0. 3.52241099e-02
      1.17713083e-02 2.51622479e-02 4.62575890e-02 2.00914413e-01
      3.21018010e-01 0. 3.21018010e-01 0. 1.40489070e-02 4.69489815e-03
      4.62575890e-02 1.17860851e-03 1.89602286e-01 3.21018010e-01 0.
      3.21018010e-01 0. 5.34772547e-03 1.78712048e-03 1.17860851e-03
      4.67690192e-02 1.37287661e-01 3.50534886e-01 0. 3.50534886e-01 0.
      1.37518048e-01 4.59562093e-02 4.67690192e-02 1.07928505e-02
      4.68812212e-02 1.40286341e-01 0. 3.50534886e-01 0. 1.83150247e-01
      6.12056404e-02 1.07928505e-02 1.65082095e-03 1.29282907e-01
      3.50534886e-01 0. 3.50534886e-01 0. 1.66571792e-02 5.56655088e-03
      1.65082095e-03 3.80958722e-04 1.24711119e-01 3.50534886e-01 0.
      3.50534886e-01 0. 1.14871841e-02 3.83882155e-03 3.80958722e-04
      6.03953265e-02 7.43715605e-03 2.22547930e-02 0. 2.82528788e-01 0.
      2.82528788e-01 1.47613481e-01 6.03953265e-02 2.48575985e-01
      1.53648123e-01 2.82528788e-01 0. 2.82528788e-01 0. 2.65309006e-01
      8.86617899e-02 2.48575985e-01 8.68246481e-02 1.18823731e-02
      3.55565920e-02 0. 1.69289097e-01 0. 2.82528788e-01 1.05672583e-01
      8.68246481e-02 2.36170083e-01 1.37020051e-01 2.82528788e-01 0.
      1.21962093e-01 0. 2.35509023e-01 7.87031725e-02 2.36170083e-01
      1.55714422e-01 2.83916175e-01 3.49482656e-01 0. 3.49482656e-01 0.
      2.21277475e-02 7.39470916e-03 1.55714422e-01 1.84232164e-02
      1.82637870e-01 3.49482656e-01 0. 3.49482656e-01 0. 1.56779326e-02
      5.23930369e-03 1.84232164e-02 1.28247216e-01 1.40509158e-01
      3.49482656e-01 0. 1.02463998e-01 0. 1.29204635e-02 4.31780331e-03
      1.28247216e-01 9.16729942e-02 3.81175838e-02 1.14062294e-01 0.
      3.49482656e-01 0. 6.79377168e-02 2.27036476e-02 9.16729942e-02
      1.73394661e-02 1.06508054e-01 3.18712115e-01 0. 3.78139377e-01 0.
      2.03103591e-02 6.78738253e-03 1.73394661e-02 8.05518683e-03
      1.12609014e-01 3.36968958e-01 0. 3.78139377e-01 0. 4.68700565e-03
      1.56631903e-03 8.05518683e-03 1.58998162e-01 7.49456435e-02
      2.24265859e-01 0. 3.78139377e-01 0. 8.80115554e-02 2.94119902e-02
      1.58998162e-01 7.48760551e-02 7.57674575e-02 2.26725146e-01 0.
      3.78139377e-01 0. 2.03103591e-02 6.78738253e-03 7.48760551e-02</_>
    <_>
      2.89163459e-02 7.75243668e-03 2.31981575e-02 0. 3.68510862e-03 0.
      7.15012988e-03 2.38944776e-03 2.89163459e-02 4.79936413e-02
      8.74246284e-03 2.61606816e-02 0. 2.54710168e-02 0. 1.57302842e-02
      5.25678508e-03 4.79936413e-02 1.25304177e-01 2.03112319e-01
      4.21874672e-01 0. 4.21874672e-01 0. 1.07251950e-01 3.58417146e-02
      1.25304177e-01 2.07972452e-01 2.03466609e-01 4.21874672e-01 0.
      4.21874672e-01 0. 2.35954285e-01 7.88517818e-02 2.07972452e-01
      4.31969613e-02 1.19047016e-02 3.56232710e-02 0. 4.14777659e-02 0.
      3.23356651e-02 1.08060120e-02 4.31969613e-02 6.14950322e-02
      2.96386536e-02 8.86898115e-02 0. 1.24011807e-01 0. 1.23572387e-01
      4.12957519e-02 6.14950322e-02 1.08144723e-01 1.51329309e-01
      3.83531034e-01 0. 3.83531034e-01 0. 1.95493758e-01 6.53305873e-02
      1.08144723e-01 1.35289088e-01 2.03394800e-01 3.83531034e-01 0.
      3.83531034e-01 0. 3.83531034e-01 1.92997262e-01 1.35289088e-01
      7.48856291e-02 5.95337413e-02 1.78146973e-01 0. 2.00401083e-01 0.
      1.24086745e-01 4.14676778e-02 7.48856291e-02 1.48181379e-01
      5.62819354e-02 1.68416411e-01 0. 3.25965613e-01 0. 3.40828031e-01
      1.22569628e-01 1.48181379e-01 3.35313678e-02 5.47318831e-02
      1.63778260e-01 0. 3.40828031e-01 0. 2.44702905e-01 8.17755237e-02
      3.35313678e-02 4.25863974e-02 1.05051681e-01 3.14354360e-01 0.
      3.40828031e-01 0. 3.40828031e-01 1.39016658e-01 4.25863974e-02
      1.55298989e-02 7.96902031e-02 2.38462567e-01 0. 4.31544214e-01 0.
      2.29699071e-02 7.67613994e-03 1.55298989e-02 2.81100329e-02
      7.95900077e-02 2.38162726e-01 0. 4.31544214e-01 0. 5.33095784e-02
      1.78151242e-02 2.81100329e-02 1.21315271e-02 2.48013195e-02
      7.42147192e-02 0. 4.31544214e-01 0. 3.18190865e-02 1.06333904e-02
      1.21315271e-02 1.41041458e-01 7.91254044e-02 2.36772507e-01 0.
      4.31544214e-01 0. 9.01662856e-02 3.01319938e-02 1.41041458e-01
      1.30541129e-02 7.91088641e-02 2.36723036e-01 0. 3.17594707e-01 0.
      5.13697341e-02 1.71668623e-02 1.30541129e-02 2.41243970e-02
      9.53486338e-02 2.85318881e-01 0. 3.17594707e-01 0. 1.66304410e-01
      5.55760153e-02 2.41243970e-02 1.33926839e-01 1.02219805e-01
      3.05879623e-01 0. 3.17594707e-01 0. 6.48233220e-02 2.16628164e-02
      1.33926839e-01 2.77228862e-01 7.44125694e-02 2.22670063e-01 0.
      3.17594707e-01 0. 2.16270506e-01 7.22737908e-02 2.77228862e-01
      1.38806170e-02 6.38088062e-02 1.90939814e-01 0. 3.29321712e-01 0.
      7.84718543e-02 2.62239315e-02 1.38806170e-02 1.00516272e-03
      1.14745595e-01 3.29321712e-01 0. 3.29321712e-01 0. 4.00544144e-02
      1.33854924e-02 1.00516272e-03 2.23728135e-01 1.59004375e-01
      3.29321712e-01 0. 3.29321712e-01 0. 9.72578973e-02 3.25018838e-02
      2.23728135e-01 3.54477987e-02 1.90808490e-01 3.29321712e-01 0.
      3.29321712e-01 0. 0. 0. 3.54477987e-02 1.09269850e-01
      1.61189190e-03 4.82339552e-03 0. 3.12439144e-01 0. 2.11667061e-01
      7.07355738e-02 1.09269850e-01 3.12439144e-01 9.93924439e-02
      2.97419608e-01 0. 3.12439144e-01 0. 1.78606093e-01 5.96871153e-02
      3.12439144e-01 1.67106345e-01 2.07243231e-03 6.20150799e-03 0.
      1.79777697e-01 0. 2.11540952e-01 7.06934556e-02 1.67106345e-01
      3.12439144e-01 6.60764426e-02 1.97725922e-01 0. 8.00559297e-02 0.
      1.19319744e-01 3.98746654e-02 3.12439144e-01 3.00453007e-01
      1.43891096e-01 3.00453007e-01 0. 3.00453007e-01 0. 4.60434780e-02
      1.53869214e-02 3.00453007e-01 3.00453007e-01 6.75818101e-02
      2.02230200e-01 0. 1.67659119e-01 0. 1.14546299e-01 3.82793620e-02
      3.00453007e-01 2.90823162e-01 7.68825561e-02 2.30061904e-01 0.
      8.92675668e-02 0. 0. 0. 2.90823162e-01 2.23878652e-01
      2.16166992e-02 6.46854043e-02 0. 5.73153012e-02 0. 0. 0.
      2.23878652e-01 3.63501757e-01 2.25410774e-01 3.63501757e-01 0.
      1.79723337e-01 0. 8.99858326e-02 3.00716870e-02 3.63501757e-01
      1.72003910e-01 2.61254340e-01 3.63501757e-01 0. 3.35274100e-01 0.
      0. 0. 1.72003910e-01 2.44677380e-01 2.10846588e-02 6.30933419e-02
      0. 4.39031562e-03 0. 0. 0. 2.44677380e-01 5.86769283e-02
      2.18001977e-02 6.52345046e-02 0. 9.65869520e-03 0. 0. 0.
      5.86769283e-02</_>
    <_>
      8.30033142e-03 0. 0. 0. 0. 0. 0. 0. 8.30033142e-03 8.49064998e-03
      0. 0. 0. 0. 0. 0. 0. 8.49064998e-03 3.01637977e-01 1.18516184e-01
      3.01637977e-01 0. 3.01637977e-01 0. 3.01637977e-01 1.29037097e-01
      3.01637977e-01 3.01637977e-01 1.13120243e-01 3.01637977e-01 0.
      3.01637977e-01 0. 3.01637977e-01 2.08222374e-01 3.01637977e-01
      1.39476573e-02 0. 0. 0. 0. 0. 0. 0. 1.39476573e-02 4.44382578e-02
      3.98815162e-02 1.19340256e-01 0. 1.41373023e-01 0. 7.09526017e-02
      2.37111729e-02 4.44382578e-02 2.54025668e-01 1.41680524e-01
      3.32188576e-01 0. 3.32188576e-01 0. 3.32188576e-01 1.99377701e-01
      2.54025668e-01 1.48953855e-01 8.73972774e-02 2.61524945e-01 0.
      3.32188576e-01 0. 3.32188576e-01 2.99815893e-01 1.48953855e-01
      1.11429580e-01 4.78057526e-02 1.43052489e-01 0. 1.48646623e-01 0.
      2.03613445e-01 6.80441037e-02 1.11429580e-01 1.24251068e-01
      2.17298884e-02 6.50238618e-02 0. 1.88138425e-01 0. 2.76728839e-01
      9.24779624e-02 1.24251068e-01 8.55700672e-02 5.37708662e-02
      1.60902321e-01 0. 3.74473393e-01 0. 3.74473393e-01 1.90711930e-01
      8.55700672e-02 1.01375252e-01 3.28535922e-02 9.83101726e-02 0.
      3.74473393e-01 0. 3.74473393e-01 2.28849962e-01 1.01375252e-01
      1.35253295e-01 4.64786552e-02 1.39081314e-01 0. 2.78830498e-01 0.
      2.01315403e-01 6.72760978e-02 1.35253295e-01 2.17711434e-01
      6.78401887e-02 2.03002915e-01 0. 2.78830498e-01 0. 2.78830498e-01
      1.23614304e-01 2.17711434e-01 1.22133166e-01 7.05639040e-03
      2.11153291e-02 0. 2.78830498e-01 0. 2.78830498e-01 1.37804881e-01
      1.22133166e-01 2.78830498e-01 2.75845826e-02 8.25432837e-02 0.
      2.24103332e-01 0. 2.78830498e-01 9.53544602e-02 2.78830498e-01
      9.82964039e-02 7.70263374e-02 2.30491281e-01 0. 2.69229144e-01 0.
      2.69229144e-01 9.43575725e-02 9.82964039e-02 7.76841044e-02
      5.41548692e-02 1.62051409e-01 0. 2.69229144e-01 0. 2.69229144e-01
      1.03458591e-01 7.76841044e-02 2.69229144e-01 3.02353594e-02
      9.04753730e-02 0. 2.69229144e-01 0. 1.12114839e-01 3.74668315e-02
      2.69229144e-01 2.69229144e-01 1.14492826e-01 2.69229144e-01 0.
      2.69229144e-01 0. 1.48594186e-01 4.96576391e-02 2.69229144e-01
      6.34816736e-02 7.73263052e-02 2.31389001e-01 0. 3.24306607e-01 0.
      1.55112624e-01 5.18359989e-02 6.34816736e-02 3.69551405e-02
      7.45028779e-02 2.22940698e-01 0. 3.24306607e-01 0. 1.80732071e-01
      6.03975356e-02 3.69551405e-02 2.37589955e-01 2.24982679e-01
      3.24306607e-01 0. 2.52531916e-01 0. 3.58721018e-02 1.19878463e-02
      2.37589955e-01 1.03344530e-01 1.78678393e-01 3.24306607e-01 0.
      3.24306607e-01 0. 1.52358143e-02 5.09154145e-03 1.03344530e-01
      3.43561620e-01 0. 0. 0. 1.95056468e-01 0. 4.06443179e-01
      2.22798437e-01 3.43561620e-01 4.06443179e-01 0. 0. 0.
      2.36204118e-02 0. 3.05577636e-01 1.02118932e-01 4.06443179e-01
      5.82249910e-02 0. 0. 0. 0. 0. 2.17186231e-02 7.25800125e-03
      5.82249910e-02 1.79908365e-01 0. 0. 0. 0. 0. 1.31947100e-02
      4.40945197e-03 1.79908365e-01 3.80262941e-01 1.52578950e-03
      4.56572650e-03 0. 6.40972406e-02 0. 1.05386510e-01 3.52184065e-02
      3.80262941e-01 3.80262941e-01 1.44426465e-01 3.80262941e-01 0.
      1.68481454e-01 0. 3.11280280e-01 1.04024656e-01 3.80262941e-01
      1.27856225e-01 0. 0. 0. 0. 0. 2.43199598e-02 8.12732521e-03
      1.27856225e-01 1.69521093e-01 1.79251563e-02 5.36389053e-02 0. 0.
      0. 7.18339086e-02 2.40056925e-02 1.69521093e-01 3.96672219e-01
      3.96672219e-01 3.96672219e-01 0. 7.86996558e-02 0. 1.36016607e-01
      4.54544760e-02 3.96672219e-01 1.57911196e-01 2.59130925e-01
      3.96672219e-01 0. 1.08387612e-01 0. 0. 0. 1.57911196e-01
      1.36223093e-01 3.79043221e-02 1.13424212e-01 0. 0. 0.
      3.13884467e-02 1.04894945e-02 1.36223093e-01 1.39119448e-02
      9.33026709e-03 2.79197171e-02 0. 0. 0. 0. 0. 1.39119448e-02</_>
    <_>
      2.41253935e-02 7.10938573e-02 2.12739140e-01 0. 4.74503994e-01 0.
      0. 0. 2.41253935e-02 3.23129334e-02 4.22283895e-02 1.26362950e-01
      0. 4.74503994e-01 0. 0. 0. 3.23129334e-02 0. 7.62603339e-03
      2.28199121e-02 0. 4.74503994e-01 0. 0. 0. 0. 2.49227993e-02
      4.64830399e-02 1.39094442e-01 0. 4.74503994e-01 0. 0. 0.
      2.49227993e-02 2.66218763e-02 0. 0. 0. 3.24666917e-01 0. 0. 0.
      2.66218763e-02 1.36073614e-02 2.87327301e-02 8.59789550e-02 0.
      3.29708531e-02 0. 4.65230830e-03 1.55472371e-03 1.36073614e-02
      2.99017578e-01 1.72774419e-01 3.24666917e-01 0. 3.24666917e-01 0.
      1.09911911e-01 3.67306322e-02 2.99017578e-01 2.95227498e-01
      1.12399943e-01 3.24666917e-01 0. 3.24666917e-01 0. 2.11099952e-01
      7.05459490e-02 2.95227498e-01 7.38970935e-02 5.59134632e-02
      1.67313769e-01 0. 3.04401349e-02 0. 5.67635037e-02 1.89693701e-02
      7.38970935e-02 1.27921432e-01 3.60216685e-02 1.07790165e-01 0.
      4.23171930e-02 0. 2.07533747e-01 6.93541318e-02 1.27921432e-01
      2.44498432e-01 1.22691989e-01 3.12699080e-01 0. 3.12699080e-01 0.
      2.59627998e-01 8.67632553e-02 2.44498432e-01 2.86672175e-01
      7.33730569e-02 2.19559327e-01 0. 3.12699080e-01 0. 3.12699080e-01
      1.90757886e-01 2.86672175e-01 9.52339079e-03 5.75391995e-03
      1.72178578e-02 0. 3.41033906e-01 0. 8.64510909e-02 2.88904980e-02
      9.52339079e-03 5.68161346e-02 1.08958662e-01 3.26044649e-01 0.
      3.41033906e-01 0. 7.48958737e-02 2.50289124e-02 5.68161346e-02
      5.51355556e-02 1.39791509e-02 4.18308787e-02 0. 3.41033906e-01 0.
      2.64792502e-01 8.84892121e-02 5.51355556e-02 2.09919617e-01
      1.56376511e-01 3.41033906e-01 0. 3.41033906e-01 0. 2.62885660e-01
      8.78519490e-02 2.09919617e-01 1.14916913e-01 1.30368531e-01
      3.00658882e-01 0. 3.00658882e-01 0. 1.02058828e-01 3.41062695e-02
      1.14916913e-01 8.87140930e-02 2.79294159e-02 8.35751295e-02 0.
      3.00658882e-01 0. 1.87165886e-01 6.25475645e-02 8.87140930e-02
      1.81561127e-01 1.24374896e-01 3.00658882e-01 0. 3.00658882e-01 0.
      3.00658882e-01 1.02020957e-01 1.81561127e-01 8.76720697e-02
      2.09671650e-02 6.27415329e-02 0. 3.00658882e-01 0. 3.00658882e-01
      2.11752057e-01 8.76720697e-02 8.63921270e-02 3.08810882e-02
      9.24076363e-02 0. 3.80661368e-01 0. 1.22975953e-01 4.10964638e-02
      8.63921270e-02 7.32542425e-02 2.68150121e-02 8.02404583e-02 0.
      3.80661368e-01 0. 1.35399148e-01 4.52480763e-02 7.32542425e-02
      7.61265904e-02 1.00057781e-01 2.99410075e-01 0. 3.80661368e-01 0.
      2.22509220e-01 7.43586868e-02 7.61265904e-02 1.98883396e-02
      1.58280477e-01 3.80661368e-01 0. 3.80661368e-01 0. 6.54213130e-03
      2.18626810e-03 1.98883396e-02 1.99807271e-01 2.79322173e-02
      8.35838169e-02 0. 3.28741968e-01 0. 3.28741968e-01 1.69036373e-01
      1.99807271e-01 3.28741968e-01 2.60301262e-01 3.28741968e-01 0.
      3.28741968e-01 0. 3.28741968e-01 1.94427729e-01 3.28741968e-01
      3.50011662e-02 1.43093895e-03 4.28191479e-03 0. 0. 0.
      1.97878815e-02 6.61277864e-03 3.50011662e-02 7.53357708e-02
      9.58705507e-03 2.86881253e-02 0. 4.69023623e-02 0. 3.14605162e-02
      1.05135785e-02 7.53357708e-02 1.44742161e-01 6.63475022e-02
      1.98537007e-01 0. 2.88791925e-01 0. 2.88791925e-01 1.37690142e-01
      1.44742161e-01 2.35555962e-01 3.77620347e-02 1.12998195e-01 0.
      2.88791925e-01 0. 2.88791925e-01 2.70782828e-01 2.35555962e-01
      4.31832708e-02 1.99173251e-03 5.96002396e-03 0. 1.25661746e-01 0.
      1.91976070e-01 6.41551986e-02 4.31832708e-02 2.88791925e-01
      3.62482294e-02 1.08468518e-01 0. 1.15994439e-01 0. 2.88791925e-01
      1.51904061e-01 2.88791925e-01 2.42792711e-01 1.87970340e-01
      2.96973079e-01 0. 1.48324981e-01 0. 2.73953736e-01 9.15505961e-02
      2.42792711e-01 6.37426376e-02 2.79676169e-01 2.96973079e-01 0.
      2.96973079e-01 0. 4.48176451e-03 1.49772712e-03 6.37426376e-02
      2.70940453e-01 1.30468324e-01 2.96973079e-01 0. 8.77154432e-03 0.
      1.36880651e-01 4.57432233e-02 2.70940453e-01 6.48676306e-02
      1.31351784e-01 2.96973079e-01 0. 2.49776635e-02 0. 2.98784318e-04
      9.98484684e-05 6.48676306e-02</_>
    <_>
      2.41686329e-01 4.26988341e-02 1.27770692e-01 0. 2.05985561e-01 0.
      8.71326849e-02 2.91182883e-02 2.41686329e-01 3.73088360e-01
      1.66325971e-01 3.73088360e-01 0. 1.60210997e-01 0. 1.12027735e-01
      3.74378003e-02 3.73088360e-01 9.91992801e-02 7.67687988e-03
      2.29720660e-02 0. 7.04579726e-02 0. 3.96057703e-02 1.32355858e-02
      9.91992801e-02 3.73088360e-01 3.26639265e-02 9.77427661e-02 0.
      8.18058401e-02 0. 5.09217009e-02 1.70171820e-02 3.73088360e-01
      3.78577322e-01 5.35397120e-02 1.60210997e-01 0. 2.26479113e-01 0.
      9.21724737e-02 3.08024567e-02 3.78577322e-01 1.84103593e-01
      1.14786485e-02 3.43484916e-02 0. 3.78577322e-01 0. 2.12672219e-01
      7.10713640e-02 1.84103593e-01 1.16886944e-01 4.00546715e-02
      1.19858615e-01 0. 3.78577322e-01 0. 2.48020217e-02 8.28841608e-03
      1.16886944e-01 2.79519800e-02 4.85525690e-02 1.45287529e-01 0.
      3.78577322e-01 0. 4.19265740e-02 1.40111418e-02 2.79519800e-02
      6.42740354e-02 0. 0. 0. 6.46042109e-01 0. 3.23352039e-01
      1.08058602e-01 6.42740354e-02 0. 0. 0. 0. 0. 0. 0. 0. 0.
      4.70853969e-03 5.58250472e-02 1.67049602e-01 0. 6.46042109e-01 0.
      5.40477261e-02 1.80618148e-02 4.70853969e-03 0. 0. 0. 0. 0. 0. 0.
      0. 0. 0. 0. 0. 0. 0. 0. 0. 0. 0. 0. 8.74760933e-03 2.61760801e-02
      0. 3.01030815e-01 0. 0. 0. 0. 1.93206742e-01 8.27361122e-02
      2.47577071e-01 0. 0. 0. 0. 0. 1.93206742e-01 3.95918071e-01
      3.67235124e-01 3.95918071e-01 0. 3.95918071e-01 0. 0. 0.
      3.95918071e-01 6.28727430e-04 4.33683395e-02 1.29774272e-01 0.
      3.24813098e-01 0. 1.89851492e-03 6.34450349e-04 6.28727430e-04
      8.01307801e-03 8.62200037e-02 2.58002728e-01 0. 3.24813098e-01 0.
      4.17673262e-03 1.39579072e-03 8.01307801e-03 1.36542901e-01
      1.05258375e-01 3.14972311e-01 0. 3.24813098e-01 0. 2.84777246e-02
      9.51675512e-03 1.36542901e-01 3.24813098e-01 1.11873254e-01
      3.24813098e-01 0. 3.24813098e-01 0. 6.26509935e-02 2.09368616e-02
      3.24813098e-01 2.60374155e-02 4.72977348e-02 1.41532764e-01 0.
      3.88345897e-01 0. 2.06213980e-03 6.89130917e-04 2.60374155e-02
      2.31125560e-02 0. 0. 0. 0. 0. 0. 0. 2.31125560e-02 3.88345897e-01
      5.52790388e-02 1.65415943e-01 0. 2.54336536e-01 0. 8.74003023e-02
      2.92076878e-02 3.88345897e-01 3.88345897e-01 2.88175978e-02
      8.62332433e-02 0. 9.70433280e-02 0. 2.93984562e-01 9.82445553e-02
      3.88345897e-01 2.33899564e-01 7.02728480e-02 2.10282445e-01 0.
      1.05340503e-01 0. 0. 0. 2.33899564e-01 3.09338957e-01
      1.97162047e-01 3.09338957e-01 0. 7.39876553e-02 0. 0. 0.
      3.09338957e-01 2.70613402e-01 5.15390933e-02 1.54224142e-01 0.
      1.35437787e-01 0. 0. 0. 2.70613402e-01 3.09338957e-01
      1.23561569e-01 3.09338957e-01 0. 4.72369939e-02 0. 0. 0.
      3.09338957e-01 3.00169855e-01 1.66434929e-01 3.00169855e-01 0.
      1.75496802e-01 0. 2.32675876e-02 7.77561916e-03 3.00169855e-01
      3.00169855e-01 1.19109735e-01 3.00169855e-01 0. 1.74694136e-01 0.
      5.11886925e-02 1.71063635e-02 3.00169855e-01 3.00169855e-01
      7.14920312e-02 2.13931203e-01 0. 3.48962029e-03 0. 0. 0.
      3.00169855e-01 2.25698858e-01 4.09448706e-02 1.22522645e-01 0.
      2.71414872e-03 0. 0. 0. 2.25698858e-01 3.68308812e-01
      5.75089194e-02 1.72088638e-01 0. 2.81123519e-02 0. 1.33602828e-01
      4.46478128e-02 3.68308812e-01 3.68308812e-01 6.59436435e-02
      1.97328523e-01 0. 1.34689450e-01 0. 3.64117742e-01 1.21681921e-01
      3.68308812e-01 2.12690070e-01 2.38350034e-02 7.13234320e-02 0. 0.
      0. 5.09744920e-02 1.70348231e-02 2.12690070e-01 1.90004602e-01
      2.99743805e-02 8.96947831e-02 0. 3.10821794e-02 0. 9.58434418e-02
      3.20292674e-02 1.90004602e-01</_>
    <_>
      0. 0. 0. 0. 0. 0. 0. 0. 0. 0. 1.51269007e-02 4.52652834e-02 0. 0.
      0. 0. 0. 0. 6.77546710e-02 4.34446521e-02 1.30002484e-01 0.
      1.05670527e-01 0. 0. 0. 6.77546710e-02 4.80371863e-01
      4.80371863e-01 4.80371863e-01 0. 1.75385714e-01 0. 0. 0.
      4.80371863e-01 2.82910233e-03 5.46095148e-02 1.63411871e-01 0.
      2.82469182e-03 0. 0. 0. 2.82910233e-03 7.65352547e-02
      1.78960085e-01 3.76441538e-01 0. 1.33231193e-01 0. 6.49580136e-02
      2.17078254e-02 7.65352547e-02 9.60204154e-02 2.84319371e-01
      3.76441538e-01 0. 7.15488046e-02 0. 5.03938794e-02 1.68407783e-02
      9.60204154e-02 1.07307747e-01 3.76441538e-01 3.76441538e-01 0.
      3.76441538e-01 0. 2.35311553e-01 7.86370188e-02 1.07307747e-01
      9.00589302e-02 1.18319526e-01 3.19421619e-01 0. 2.37320065e-01 0.
      9.43226293e-02 3.15209702e-02 9.00589302e-02 1.26675759e-02
      2.85374280e-03 8.53948761e-03 0. 4.17227671e-02 0. 6.28817501e-03
      2.10139784e-03 1.26675759e-02 2.44750962e-01 3.19421619e-01
      3.19421619e-01 0. 3.19421619e-01 0. 2.17558786e-01 7.27043375e-02
      2.44750962e-01 2.32306466e-01 1.79179445e-01 3.19421619e-01 0.
      2.38944113e-01 0. 1.28942207e-01 4.30902205e-02 2.32306466e-01
      6.89399838e-02 2.77284179e-02 8.29736814e-02 0. 1.11196175e-01 0.
      0. 0. 6.89399838e-02 3.50681722e-01 2.37224460e-01 3.50681722e-01
      0. 1.84556827e-01 0. 0. 0. 3.50681722e-01 1.11634314e-01
      3.81909646e-02 1.14281490e-01 0. 8.64859074e-02 0. 0. 0.
      1.11634314e-01 3.50681722e-01 2.66912103e-01 3.50681722e-01 0.
      1.43544212e-01 0. 0. 0. 3.50681722e-01 2.00227454e-01
      1.74415901e-01 2.78525680e-01 0. 1.18604384e-01 0. 8.53415355e-02
      2.85196956e-02 2.00227454e-01 1.23293445e-01 1.54176727e-01
      2.78525680e-01 0. 2.78525680e-01 0. 2.51142234e-01 8.39274004e-02
      1.23293445e-01 2.45635003e-01 1.95481300e-01 2.78525680e-01 0.
      1.04411818e-01 0. 5.28821051e-02 1.76723097e-02 2.45635003e-01
      1.65174425e-01 1.63260728e-01 2.78525680e-01 0. 2.78525680e-01 0.
      1.36079609e-01 4.54754941e-02 1.65174425e-01 2.73402363e-01
      2.25878090e-01 2.93214947e-01 0. 2.10143745e-01 0. 1.61137208e-01
      5.38492352e-02 2.73402363e-01 1.84094131e-01 2.18598753e-01
      2.93214947e-01 0. 1.58960924e-01 0. 7.57582262e-02 2.53170710e-02
      1.84094131e-01 1.99197426e-01 1.68371797e-01 2.93214947e-01 0.
      2.93214947e-01 0. 6.95156977e-02 2.32309494e-02 1.99197426e-01
      8.57100263e-02 1.06327288e-01 2.93214947e-01 0. 8.56086686e-02 0.
      5.05054835e-03 1.68780470e-03 8.57100263e-02 1.22142591e-01
      1.18639491e-01 2.96940356e-01 0. 4.16700840e-02 0. 1.68313328e-02
      5.62475016e-03 1.22142591e-01 2.96940356e-01 2.56979048e-01
      2.96940356e-01 0. 2.77800555e-03 0. 3.88415344e-03 1.29801931e-03
      2.96940356e-01 2.03896895e-01 1.68317571e-01 2.96940356e-01 0.
      1.23080984e-01 0. 7.29357749e-02 2.43739188e-02 2.03896895e-01
      2.96940356e-01 2.16087028e-01 2.96940356e-01 0. 8.20539985e-03 0.
      1.68313328e-02 5.62475016e-03 2.96940356e-01 3.13797057e-01
      3.13797057e-01 3.13797057e-01 0. 2.10718513e-02 0. 2.23548841e-02
      7.47062778e-03 3.13797057e-01 2.74858743e-01 2.17476740e-01
      3.13797057e-01 0. 2.37021238e-01 0. 9.68711600e-02 3.23727205e-02
      2.74858743e-01 2.02953488e-01 1.32328585e-01 3.13797057e-01 0. 0.
      0. 5.15881833e-03 1.72399112e-03 2.02953488e-01 8.88496786e-02
      4.88744490e-02 1.46250993e-01 0. 2.93051521e-03 0. 2.23548841e-02
      7.47062778e-03 8.88496786e-02 3.92447919e-01 4.07953143e-01
      4.27094519e-01 0. 4.27094519e-01 0. 1.65641159e-01 5.53545058e-02
      3.92447919e-01 4.56882715e-02 4.07592468e-02 1.21967226e-01 0.
      2.03297719e-01 0. 0. 0. 4.56882715e-02 1.15327604e-01
      5.93844689e-02 1.77700981e-01 0. 2.24574003e-02 0. 3.82248834e-02
      1.27741164e-02 1.15327604e-01 0. 2.32747546e-03 6.96469471e-03 0.
      5.18247718e-03 0. 0. 0. 0.</_>
    <_>
      1.29812866e-01 2.49325819e-02 7.46075138e-02 0. 1.62811741e-01 0.
      3.29895258e-01 1.34660035e-01 1.29812866e-01 3.29895258e-01
      1.93920061e-02 5.80280572e-02 0. 7.40053430e-02 0. 3.29895258e-01
      3.28568906e-01 3.29895258e-01 1.94735359e-02 1.66217226e-03
      4.97383391e-03 0. 2.47180834e-02 0. 2.32255578e-01 7.76159465e-02
      1.94735359e-02 2.44963884e-01 9.29962192e-03 2.78279092e-02 0.
      4.16112505e-02 0. 3.29895258e-01 2.58591175e-01 2.44963884e-01
      2.60572881e-01 0. 0. 0. 3.25322291e-03 0. 2.60572881e-01
      1.67376071e-01 2.60572881e-01 2.23644748e-01 4.41642944e-03
      1.32156415e-02 0. 2.48875059e-02 0. 2.60572881e-01 1.11847982e-01
      2.23644748e-01 2.38342822e-01 2.31462941e-02 6.92622885e-02 0.
      2.00259134e-01 0. 2.60572881e-01 1.70419976e-01 2.38342822e-01
      2.25211814e-01 8.90405774e-02 2.60572881e-01 0. 2.60572881e-01 0.
      2.60572881e-01 1.23951681e-01 2.25211814e-01 2.55578697e-01
      2.23605316e-02 6.69112429e-02 0. 1.52261287e-01 0. 3.49701852e-01
      1.49440676e-01 2.55578697e-01 5.00170700e-03 5.16012264e-03
      1.54410554e-02 0. 6.33831397e-02 0. 6.22712746e-02 2.08099671e-02
      5.00170700e-03 2.44049191e-01 2.66892374e-01 3.49701852e-01 0.
      3.49701852e-01 0. 3.49701852e-01 2.04001829e-01 2.44049191e-01
      3.89021612e-03 4.06854935e-02 1.21746503e-01 0. 2.40691140e-01 0.
      1.00171618e-01 3.34755965e-02 3.89021612e-03 2.60298029e-02
      2.40359991e-03 7.19245989e-03 0. 0. 0. 1.38891339e-02
      4.64151613e-03 2.60298029e-02 1.48554832e-01 5.37996106e-02
      1.60988331e-01 0. 1.99875757e-01 0. 1.64151520e-01 5.48566990e-02
      1.48554832e-01 3.51090550e-01 7.46146739e-02 2.23274723e-01 0.
      1.64249510e-01 0. 1.74897492e-01 5.84478080e-02 3.51090550e-01
      3.51090550e-01 1.83102086e-01 3.51090550e-01 0. 2.82308012e-01 0.
      7.38436580e-02 2.46773157e-02 3.51090550e-01 8.45338330e-02
      8.21667090e-02 2.45873213e-01 0. 2.94141859e-01 0. 1.27226546e-01
      4.25169803e-02 8.45338330e-02 5.94312325e-02 1.46230608e-01
      2.94141859e-01 0. 2.94141859e-01 0. 9.36956108e-02 3.13114673e-02
      5.94312325e-02 2.72502691e-01 9.39649120e-02 2.81177819e-01 0.
      2.94141859e-01 0. 2.42992472e-02 8.12039804e-03 2.72502691e-01
      2.53803909e-01 6.56449944e-02 1.96434498e-01 0. 2.94141859e-01 0.
      1.27157569e-01 4.24938463e-02 2.53803909e-01 8.52112547e-02
      1.73148528e-01 3.31696481e-01 0. 3.31696481e-01 0. 9.71934944e-02
      3.24803628e-02 8.52112547e-02 2.56402772e-02 1.55453198e-02
      4.65175360e-02 0. 7.17147216e-02 0. 2.64500547e-02 8.83914344e-03
      2.56402772e-02 3.31696481e-01 4.37800959e-02 1.31006747e-01 0.
      3.31696481e-01 0. 3.31696481e-01 1.80891126e-01 3.31696481e-01
      1.54790714e-01 7.40051037e-04 2.21451512e-03 0. 1.06599770e-01 0.
      3.31696481e-01 2.25371808e-01 1.54790714e-01 3.22733730e-01
      4.74949479e-02 1.42122462e-01 0. 1.56582505e-01 0. 3.16476017e-01
      1.05760992e-01 3.22733730e-01 3.22733730e-01 9.69872698e-02
      2.90222168e-01 0. 5.13713248e-02 0. 1.73682690e-01 5.80418557e-02
      3.22733730e-01 1.48701966e-01 3.56978574e-03 1.06821386e-02 0.
      2.37723589e-02 0. 1.36247158e-01 4.55315188e-02 1.48701966e-01
      3.22733730e-01 2.52080485e-02 7.54320920e-02 0. 1.58482406e-03 0.
      1.03149340e-01 3.44707817e-02 3.22733730e-01 3.15817595e-01
      5.18275499e-02 1.55087441e-01 0. 1.13354161e-01 0. 1.24558762e-01
      4.16254587e-02 3.15817595e-01 3.15817595e-01 4.88357153e-03
      1.46134542e-02 0. 1.54814839e-01 0. 2.65501738e-01 8.87261927e-02
      3.15817595e-01 3.09101313e-01 1.52386995e-02 4.56000008e-02 0. 0.
      0. 9.44540352e-02 3.15649584e-02 3.09101313e-01 3.15817595e-01 0.
      0. 0. 0. 0. 1.79151297e-01 5.98693788e-02 3.15817595e-01
      2.79462457e-01 5.31019177e-03 1.58901196e-02 0. 8.08782801e-02 0.
      2.79462457e-01 1.44518167e-01 2.79462457e-01 2.08056122e-01
      2.30108313e-02 6.88571930e-02 0. 2.79462457e-01 0. 2.79462457e-01
      1.98921084e-01 2.08056122e-01 2.79462457e-01 6.82738889e-03
      2.04301514e-02 0. 2.68618129e-02 0. 1.93876311e-01 6.47901967e-02
      2.79462457e-01 2.65514076e-01 2.95853540e-02 8.85306671e-02 0.
      2.47944117e-01 0. 1.83011800e-01 6.11594059e-02 2.65514076e-01</_></uncompressed_support_vectors>
  <decision_functions>
    <_>
      <sv_count>1</sv_count>
      <rho>-2.6272688167921399e-01</rho>
      <alpha>
        1.</alpha>
      <index>
        0</index></_>
    <_>
      <sv_count>1</sv_count>
      <rho>-3.9280221467666576e-01</rho>
      <alpha>
        1.</alpha>
      <index>
        1</index></_>
    <_>
      <sv_count>1</sv_count>
      <rho>-2.9495359911721775e-01</rho>
      <alpha>
        1.</alpha>
      <index>
        2</index></_>
    <_>
      <sv_count>1</sv_count>
      <rho>2.9440234555816125e-02</rho>
      <alpha>
        1.</alpha>
      <index>
        3</index></_>
    <_>
      <sv_count>1</sv_count>
      <rho>2.7547998241557486e-01</rho>
      <alpha>
        1.</alpha>
      <index>
        4</index></_>
    <_>
      <sv_count>1</sv_count>
      <rho>2.4235575334579332e-01</rho>
      <alpha>
        1.</alpha>
      <index>
        5</index></_></decision_functions></opencv_ml_svm>
</opencv_storage>
